{"learner":{"attributes":{},"feature_names":["absolute_yardline_number","player_height","player_position","lurker_x","lurker_y","lurker_s","lurker_a","lurker_dir","lurker_o","ball_land_x","ball_land_y","distance_to_target","distance_to_ball","depth_difference","time_to_throw","receiver_x","receiver_y","receiver_s","receiver_a","receiver_dir","receiver_o","target_distance_to_ball","qb_x","qb_y","qb_s","qb_a","qb_dir","qb_o","down","yards_to_go","defensive_point_diff","pass_length","play_action","dropback_type","dropback_distance","team_coverage_type","defenders_in_the_box","route_of_targeted_receiver","qb_hit","seconds_left"],"feature_types":["int","int","c","float","float","float","float","float","float","float","float","float","float","float","float","float","float","float","float","float","float","float","float","float","float","float","float","float","c","int","int","int","c","c","float","c","int","c","c","float"],"gradient_booster":{"model":{"gbtree_model_param":{"num_parallel_tree":"1","num_trees":"90"},"iteration_indptr":[0,3,6,9,12,15,18,21,24,27,30,33,36,39,42,45,48,51,54,57,60,63,66,69,72,75,78,81,84,87,90],"tree_info":[0,1,2,0,1,2,0,1,2,0,1,2,0,1,2,0,1,2,0,1,2,0,1,2,0,1,2,0,1,2,0,1,2,0,1,2,0,1,2,0,1,2,0,1,2,0,1,2,0,1,2,0,1,2,0,1,2,0,1,2,0,1,2,0,1,2,0,1,2,0,1,2,0,1,2,0,1,2,0,1,2,0,1,2,0,1,2,0,1,2],"trees":[{"base_weights":[6.867549E-1,7.477404E-1,1.4775157E-1,7.8592217E-1,2.8646377E-1,-4.4162443E-1,2.4237424E-1,8.623528E-1,6.088721E-1,8.3720885E-2,6.908517E-1,-5.350319E-1,-6.1224528E-2,-7.334968E-2,3.9852396E-1,8.8013476E-1,9.523805E-2,-2.0496899E-1,6.4695174E-1,1.8312384E-1,-4.9484542E-1,9.113924E-1,3.3707827E-2,-6.2790704E-1,-8.1081115E-2,-1.6363637E-1,1.7999999E-1,-2.9712465E-1,5.9999996E-1,5.553719E-1,-5.5299584E-2,7.826435E-1,9.698568E-1,-1.9384618E-1,4.511278E-1,-6.0550463E-1,5.4098356E-1,-2.0689698E-2,6.757355E-1,-1.1857712E-1,4.217252E-1,7.2E-2,-2.0000003E-1,2.2641507E-1,1.0569948E0,3.2727274E-1,-5.0769234E-1,-2.0642205E-1,-6.206898E-2,-1.4400001E-1,1.2857142E-1,2.1724138E-1,-3.8907856E-1,9.1764706E-1,-1.5517244E-1,6.748582E-1,-2.4705887E-1,7.317073E-1,-2.2702707E-1,8.501195E-1,5.345454E-1,9.129205E-1,1.1829419E0,3.8961E-2,8.769231E-1,-2.0224722E-1,-6.206898E-2,-1.2857145E-1,8.5714287E-1,6.486486E-1,-2.3076928E-1,4.8297212E-1,7.578373E-1,2.8800002E-1,-2.2784816E-1,3.4615386E-1,2.2178985E-1,6.486486E-1,-1.4400001E-1,5.217391E-1,1.2631578E0,-1.8679248E-1,-7.663455E-9,8.219174E-2,-5.240175E-1,-3.2511625E-8,3.8360658E-1,7.425742E-1,-1.6363637E-1,-1.8679248E-1,2.926829E-1,3.1034482E-1,-7.663455E-9,-4.630873E-1,5.9999996E-1,-8.181819E-2,2.580723E-1,3.7058824E-1,1.1101321E-1,2.7576524E-1,-1.2857145E-1,3.6833978E-1,2.195121E-2,-9.473686E-2,2.1724138E-1,3.5999998E-1,3.1034475E-2,3.2727274E-1,7.2E-2,-7.663455E-9,2.8800002E-1,3.9130427E-2,-1.894737E-1,2.4210526E-1,3.48387E-2,1.3333333E-1,2.4731302E-1,3.1034471E-2,-2.0495051E-1,4.306208E-3,2.8421053E-1,2.8800002E-1,-7.663455E-9,2.7169812E-1,-1.4400001E-1,1.2413793E-1,4.141593E-1,-1.2000001E-1,1.9459459E-1,8.181818E-2,-1.8878052E-1,1.2857142E-1,-1.2857145E-1,-1.232878E-2,2.5714287E-1,2.8800002E-1,-1.4400001E-1,2.195121E-2,-1.8461542E-1,-3.600001E-2,3.1034482E-1],"categories":[1,5],"categories_nodes":[27],"categories_segments":[0],"categories_sizes":[2],"default_left":[0,0,0,0,0,0,0,0,0,0,0,0,0,0,0,0,0,0,0,0,0,0,0,0,0,0,0,1,0,0,0,0,0,0,0,0,0,0,0,0,0,0,0,0,0,0,0,0,0,0,0,0,0,0,0,0,0,0,0,0,0,0,0,0,0,0,0,0,0,0,0,0,0,0,0,0,0,0,0,0,0,0,0,0,0,0,0,0,0,0,0,0,0,0,0,0,0,0,0,0,0,0,0,0,0,0,0,0,0,0,0,0,0,0,0,0,0,0,0,0,0,0,0,0,0,0,0,0,0,0,0,0,0,0,0,0,0,0,0,0,0],"id":0,"left_children":[1,3,5,7,9,11,13,15,17,19,21,23,25,27,29,31,33,35,37,39,41,43,45,47,49,-1,-1,51,53,55,57,59,61,-1,63,65,67,69,71,73,75,-1,-1,77,79,-1,81,-1,-1,-1,-1,-1,83,85,-1,87,89,91,93,95,97,99,101,103,105,-1,-1,-1,107,109,111,113,115,-1,117,-1,119,121,-1,123,125,-1,-1,127,129,131,-1,133,-1,-1,135,-1,-1,137,139,-1,-1,-1,-1,-1,-1,-1,-1,-1,-1,-1,-1,-1,-1,-1,-1,-1,-1,-1,-1,-1,-1,-1,-1,-1,-1,-1,-1,-1,-1,-1,-1,-1,-1,-1,-1,-1,-1,-1,-1,-1,-1,-1,-1,-1,-1],"loss_changes":[4.982843E1,2.3807861E1,8.788309E0,1.6520813E1,8.623651E0,7.450037E-1,6.673802E0,1.1885254E1,1.2008957E1,4.2122536E0,5.073929E0,6.8455935E-1,2.070501E0,7.0257883E0,6.4607515E0,6.741089E0,5.8324275E0,5.672421E0,7.053894E0,4.5051565E0,1.5208247E0,2.3870182E0,6.213939E0,2.2071266E-1,1.0415444E0,0E0,0E0,3.5476954E0,4.61501E0,6.6119633E0,3.4247513E0,6.511551E0,4.2865906E0,0E0,2.5593147E0,1.9194555E-1,2.444965E0,2.415141E0,5.192505E0,3.5318315E0,4.8347507E0,0E0,0E0,2.0678427E0,1.7073536E0,0E0,4.2148054E-1,0E0,0E0,0E0,0E0,0E0,2.1133661E0,3.129025E0,0E0,5.2621307E0,2.0967922E0,1.0092514E0,4.2908754E0,3.9332428E0,1.0109684E1,3.3796082E0,4.3849335E0,2.3082473E0,1.6806364E0,0E0,0E0,0E0,5.236361E-1,8.302702E-1,1.964443E0,1.2705034E1,4.7333374E0,0E0,4.042949E0,0E0,4.284326E0,8.302702E-1,0E0,3.3832319E0,9.0197754E-1,0E0,0E0,2.474935E0,2.3053393E0,8.5714287E-1,0E0,5.073103E0,0E0,0E0,2.809756E0,0E0,0E0,1.3971322E0,1.6882759E0,0E0,0E0,0E0,0E0,0E0,0E0,0E0,0E0,0E0,0E0,0E0,0E0,0E0,0E0,0E0,0E0,0E0,0E0,0E0,0E0,0E0,0E0,0E0,0E0,0E0,0E0,0E0,0E0,0E0,0E0,0E0,0E0,0E0,0E0,0E0,0E0,0E0,0E0,0E0,0E0,0E0,0E0,0E0,0E0,0E0,0E0],"parents":[2147483647,0,0,1,1,2,2,3,3,4,4,5,5,6,6,7,7,8,8,9,9,10,10,11,11,12,12,13,13,14,14,15,15,16,16,17,17,18,18,19,19,20,20,21,21,22,22,23,23,24,24,27,27,28,28,29,29,30,30,31,31,32,32,34,34,35,35,36,36,37,37,38,38,39,39,40,40,43,43,44,44,46,46,52,52,53,53,55,55,56,56,57,57,58,58,59,59,60,60,61,61,62,62,63,63,64,64,68,68,69,69,70,70,71,71,72,72,74,74,76,76,77,77,79,79,80,80,83,83,84,84,85,85,87,87,90,90,93,93,94,94],"right_children":[2,4,6,8,10,12,14,16,18,20,22,24,26,28,30,32,34,36,38,40,42,44,46,48,50,-1,-1,52,54,56,58,60,62,-1,64,66,68,70,72,74,76,-1,-1,78,80,-1,82,-1,-1,-1,-1,-1,84,86,-1,88,90,92,94,96,98,100,102,104,106,-1,-1,-1,108,110,112,114,116,-1,118,-1,120,122,-1,124,126,-1,-1,128,130,132,-1,134,-1,-1,136,-1,-1,138,140,-1,-1,-1,-1,-1,-1,-1,-1,-1,-1,-1,-1,-1,-1,-1,-1,-1,-1,-1,-1,-1,-1,-1,-1,-1,-1,-1,-1,-1,-1,-1,-1,-1,-1,-1,-1,-1,-1,-1,-1,-1,-1,-1,-1,-1,-1],"split_conditions":[1.5670775E1,1.0328E2,3.09317E0,6.79E0,1E2,7.77E0,7.07E0,2.1E1,4.700011E0,9.8E1,1.1748E2,1.5428E2,3.9E0,7.372557E0,2.6E1,5.8E1,6E0,1.6018E2,1.3251792E0,8E0,7E0,5.694E1,4.67E0,3.7E1,5.11E0,-1.6363637E-1,1.7999999E-1,1E-45,1.6124E2,3.2357E2,4.1471195E0,5.1E1,7E0,-1.9384618E-1,6.969E1,5.17E0,4.061E1,7E0,5.1230003E1,1.747E1,-1E0,7.2E-2,-2.0000003E-1,7.04E0,2.7E0,3.2727274E-1,3.675E1,-2.0642205E-1,-6.206898E-2,-1.4400001E-1,1.2857142E-1,2.1724138E-1,1.6107265E1,1.2619E2,-1.5517244E-1,1.1748E2,7.675E1,5.8E1,7.410803E0,1.3101529E0,2.2E0,3.5758E2,9.406E1,4.18E0,5.769931E0,-2.0224722E-1,-6.206898E-2,-1.2857145E-1,1.5664E2,2.995E1,4E0,4.34E1,8.343E1,2.8800002E-1,3.4E0,3.4615386E-1,7E0,3.5E0,-1.4400001E-1,2.695E1,9.81E0,-1.8679248E-1,-7.663455E-9,6.49E0,9E0,6.68E0,3.8360658E-1,2.318E1,-1.6363637E-1,-1.8679248E-1,7.94E0,3.1034482E-1,-7.663455E-9,3.1E0,2.412E1,-8.181819E-2,2.580723E-1,3.7058824E-1,1.1101321E-1,2.7576524E-1,-1.2857145E-1,3.6833978E-1,2.195121E-2,-9.473686E-2,2.1724138E-1,3.5999998E-1,3.1034475E-2,3.2727274E-1,7.2E-2,-7.663455E-9,2.8800002E-1,3.9130427E-2,-1.894737E-1,2.4210526E-1,3.48387E-2,1.3333333E-1,2.4731302E-1,3.1034471E-2,-2.0495051E-1,4.306208E-3,2.8421053E-1,2.8800002E-1,-7.663455E-9,2.7169812E-1,-1.4400001E-1,1.2413793E-1,4.141593E-1,-1.2000001E-1,1.9459459E-1,8.181818E-2,-1.8878052E-1,1.2857142E-1,-1.2857145E-1,-1.232878E-2,2.5714287E-1,2.8800002E-1,-1.4400001E-1,2.195121E-2,-1.8461542E-1,-3.600001E-2,3.1034482E-1],"split_indices":[12,9,11,17,0,5,17,31,12,0,9,27,14,11,31,0,29,7,11,29,29,26,17,4,5,0,0,33,27,26,11,0,36,0,15,5,9,29,9,23,30,0,0,17,14,0,4,0,0,0,0,0,12,26,0,9,9,0,11,12,14,26,9,5,11,0,0,0,26,4,30,15,27,0,14,0,36,14,0,23,4,0,0,17,31,17,0,23,0,0,17,0,0,14,4,0,0,0,0,0,0,0,0,0,0,0,0,0,0,0,0,0,0,0,0,0,0,0,0,0,0,0,0,0,0,0,0,0,0,0,0,0,0,0,0,0,0,0,0,0,0],"split_type":[0,0,0,0,0,0,0,0,0,0,0,0,0,0,0,0,0,0,0,0,0,0,0,0,0,0,0,1,0,0,0,0,0,0,0,0,0,0,0,0,0,0,0,0,0,0,0,0,0,0,0,0,0,0,0,0,0,0,0,0,0,0,0,0,0,0,0,0,0,0,0,0,0,0,0,0,0,0,0,0,0,0,0,0,0,0,0,0,0,0,0,0,0,0,0,0,0,0,0,0,0,0,0,0,0,0,0,0,0,0,0,0,0,0,0,0,0,0,0,0,0,0,0,0,0,0,0,0,0,0,0,0,0,0,0,0,0,0,0,0,0],"sum_hessian":[1.5182222E3,1.3635554E3,1.5466666E2,1.2586666E3,1.04888885E2,2.0888887E1,1.3377777E2,8.764444E2,3.822222E2,7.0666664E1,3.422222E1,1.6444443E1,4.444444E0,4.4444443E1,8.933333E1,8.564444E2,1.9999998E1,1.6888887E1,3.653333E2,6.0888885E1,9.777777E0,2.5333332E1,8.888888E0,1.3333332E1,3.111111E0,2.6666665E0,1.7777777E0,3.3777775E1,1.0666666E1,6.622222E1,2.311111E1,4.1511108E2,4.413333E2,6.222222E0,1.3777777E1,1.1111111E1,5.7777777E0,1.5111111E1,3.502222E2,2.7111109E1,3.3777775E1,1.7777777E0,7.9999995E0,4.8888884E0,2.0444443E1,2.6666665E0,6.222222E0,1.1111111E1,2.222222E0,1.7777777E0,1.3333333E0,2.222222E0,3.1555553E1,8.444444E0,2.222222E0,5.7777775E1,8.444444E0,3.5555553E0,1.9555553E1,3.2444443E2,9.0666664E1,3.5244443E2,8.8888885E1,7.5555553E0,6.222222E0,8.888888E0,2.222222E0,1.3333333E0,4.444444E0,3.111111E0,1.1999999E1,1.0666666E2,2.4355554E2,1.7777777E0,2.5333332E1,6.222222E0,2.7555553E1,3.111111E0,1.7777777E0,6.666666E0,1.3777777E1,4.8888884E0,1.3333333E0,7.1111107E0,2.4444443E1,2.6666665E0,5.7777777E0,5.5111107E1,2.6666665E0,4.8888884E0,3.5555553E0,2.222222E0,1.3333333E0,1.5555554E1,3.9999998E0,2.6666665E0,3.2177777E2,1.5999999E1,7.4666664E1,3.5111108E2,1.3333333E0,8.533333E1,3.5555553E0,5.333333E0,2.222222E0,3.9999998E0,2.222222E0,2.6666665E0,1.7777777E0,1.3333333E0,1.7777777E0,6.666666E0,5.333333E0,5.5999996E1,5.0666664E1,4.3999996E1,1.9955554E2,1.5111111E1,1.0222221E1,2.2222221E1,5.333333E0,1.7777777E0,1.3333333E0,4.8888884E0,1.7777777E0,2.222222E0,1.1555555E1,3.9999998E0,3.111111E0,2.6666665E0,2.1777777E1,1.3333333E0,1.3333333E0,7.1111107E0,4.7999996E1,1.7777777E0,1.7777777E0,3.5555553E0,1.1999999E1,1.7777777E0,2.222222E0],"tree_param":{"num_deleted":"0","num_feature":"40","num_nodes":"141","size_leaf_vector":"1"}},{"base_weights":[-6.448476E-1,-3.621622E-1,-6.835317E-1,-6.351792E-1,-2.3904428E-2,-2.068966E-1,-6.984291E-1,-6.7810655E-1,-1.411765E-1,1.9848767E-1,-5.2789706E-1,-4.0327874E-1,5.555555E-1,-7.072952E-1,-5.0462115E-1,-6.878752E-1,-7.663455E-9,-4.1095895E-1,2.5714284E-1,-3.3727816E-1,4.3902436E-1,-6.629835E-1,-4.9180366E-2,-4.775087E-1,1.7999999E-1,3E-1,-3.576279E-8,-6.856742E-1,-7.3523813E-1,-1.7751484E-1,-6.377953E-1,-2.727273E-1,-6.97157E-1,1.2857142E-1,-1.918033E-1,-6.153847E-1,2.459016E-1,-3.7267122E-2,7.741935E-1,-7.663455E-9,-2.1301778E-1,-4.0000004E-1,1.7999999E-1,-2.0826449E-1,-3.050848E-1,1.2413793E-1,-1.4400001E-1,-6.977764E-1,-3.6144584E-1,-7.3708826E-1,-6.206898E-2,-3.19149E-1,4.0540537E-1,-6.8067235E-1,-3.2511625E-8,-1.2857145E-1,-7.663455E-9,-7.0700645E-1,-2.727273E-1,-2.0571432E-1,-7.663455E-9,-1.4400001E-1,5.9999996E-1,2.8800002E-1,-2.068966E-1,8.634146E-1,-1.2857145E-1,-7.663455E-9,-1.6363637E-1,3.0612242E-1,-5.036497E-1,-7.134591E-1,-5.8671594E-1,-4.5569625E-1,2.5714284E-1,-5.5491334E-1,-2.2277035E-1,-4.7107443E-1,1.2413793E-1,2.5714284E-1,-3.600001E-2,-7.032642E-1,-6.206898E-2,1.2857142E-1,-1.2857145E-1,-2.1844664E-1,-1.23287685E-1,-7.663455E-9,-1.2857145E-1,-3.600001E-2,3.1034482E-1,2.117646E-2,-1.5652177E-1,2.9675674E-1,-6.206898E-2,1.9459459E-1,-1.2857145E-1,-9.753488E-9,-1.8318588E-1,-6.206898E-2,-2.1450256E-1,-1.818068E-1,7.2E-2,8.780487E-2,-1.7560977E-1,-1.956522E-1,1.2857142E-1,-1.7628868E-1,-9.753488E-9,-2.1853037E-1,-8.181819E-2],"categories":[0,2,3],"categories_nodes":[12],"categories_segments":[0],"categories_sizes":[3],"default_left":[0,0,0,0,0,0,0,0,0,0,0,0,1,0,0,0,0,0,0,0,0,0,0,0,0,0,0,0,0,0,0,0,0,0,0,0,0,0,0,0,0,0,0,0,0,0,0,0,0,0,0,0,0,0,0,0,0,0,0,0,0,0,0,0,0,0,0,0,0,0,0,0,0,0,0,0,0,0,0,0,0,0,0,0,0,0,0,0,0,0,0,0,0,0,0,0,0,0,0,0,0,0,0,0,0,0,0,0,0,0,0],"id":1,"left_children":[1,3,5,7,9,11,13,15,17,19,21,23,25,27,29,31,-1,33,-1,35,37,39,41,43,-1,-1,45,47,49,51,53,55,57,-1,-1,59,61,63,65,-1,-1,67,-1,-1,69,-1,-1,71,73,75,-1,77,79,81,83,-1,-1,85,87,-1,-1,-1,89,-1,91,93,-1,-1,-1,95,97,99,101,103,-1,105,-1,107,-1,-1,-1,109,-1,-1,-1,-1,-1,-1,-1,-1,-1,-1,-1,-1,-1,-1,-1,-1,-1,-1,-1,-1,-1,-1,-1,-1,-1,-1,-1,-1,-1],"loss_changes":[1.6365784E1,1.706959E1,9.336426E0,2.0743713E0,9.482473E0,6.496149E0,1.8671265E0,6.219368E-1,2.8959136E0,7.722844E0,1.6415801E0,2.8103237E0,2.2222219E0,2.421875E-1,2.5053492E0,1.6651154E-1,0E0,1.8292003E0,0E0,3.1968186E0,6.574019E0,6.2767696E-1,1.7836065E0,9.8804855E-1,0E0,0E0,1.1917241E0,2.5385132E0,3.6062622E-1,1.6797044E0,1.1576805E0,1.5584415E-1,1.8295288E-1,0E0,0E0,5.626373E-1,2.0301638E0,3.2248104E0,2.957446E0,0E0,0E0,2.9090917E-1,0E0,0E0,2.5410092E0,0E0,0E0,7.737732E-1,3.5681822E0,1.0983276E-1,0E0,1.9394503E0,1.07861E0,2.79068E-1,8.5714287E-1,0E0,0E0,2.4686432E-1,1.5584415E-1,0E0,0E0,0E0,1.6882759E0,0E0,1.4443604E0,3.2709599E0,0E0,0E0,0E0,1.6480972E0,8.201022E-1,3.1924438E-1,1.5872707E0,2.7267675E0,0E0,2.1181917E0,0E0,7.3817873E-1,0E0,0E0,0E0,2.0711517E-1,0E0,0E0,0E0,0E0,0E0,0E0,0E0,0E0,0E0,0E0,0E0,0E0,0E0,0E0,0E0,0E0,0E0,0E0,0E0,0E0,0E0,0E0,0E0,0E0,0E0,0E0,0E0,0E0,0E0],"parents":[2147483647,0,0,1,1,2,2,3,3,4,4,5,5,6,6,7,7,8,8,9,9,10,10,11,11,12,12,13,13,14,14,15,15,17,17,19,19,20,20,21,21,22,22,23,23,26,26,27,27,28,28,29,29,30,30,31,31,32,32,35,35,36,36,37,37,38,38,41,41,44,44,47,47,48,48,49,49,51,51,52,52,53,53,54,54,57,57,58,58,62,62,64,64,65,65,69,69,70,70,71,71,72,72,73,73,75,75,77,77,81,81],"right_children":[2,4,6,8,10,12,14,16,18,20,22,24,26,28,30,32,-1,34,-1,36,38,40,42,44,-1,-1,46,48,50,52,54,56,58,-1,-1,60,62,64,66,-1,-1,68,-1,-1,70,-1,-1,72,74,76,-1,78,80,82,84,-1,-1,86,88,-1,-1,-1,90,-1,92,94,-1,-1,-1,96,98,100,102,104,-1,106,-1,108,-1,-1,-1,110,-1,-1,-1,-1,-1,-1,-1,-1,-1,-1,-1,-1,-1,-1,-1,-1,-1,-1,-1,-1,-1,-1,-1,-1,-1,-1,-1,-1,-1],"split_conditions":[4.700011E0,3.882126E0,1.1970798E0,4.81E0,4.85E0,2.51E3,6.9E0,1.0446E2,1.3638E2,8E0,1.4E1,1.6745E2,1E-45,1.0177293E1,2.5675085E0,8.6E-1,-7.663455E-9,1.27E2,2.5714284E-1,1.5307E2,2.76E0,3.565E1,2.8759998E1,9.749E1,1.7999999E-1,3E-1,5.792E1,2E1,7.9917207E0,8.753E1,1.0332E2,4.966E1,2.1E1,1.2857142E-1,-1.918033E-1,4.32E0,3.24E0,2.1203778E0,1.6124E2,-7.663455E-9,-2.1301778E-1,5.34E0,1.7999999E-1,-2.0826449E-1,1.3983E2,1.2413793E-1,-1.4400001E-1,7.56482E0,4.364E1,2.1408644E0,-6.206898E-2,2.1855206E0,9.478E1,2.2554E2,1.0989E2,-1.2857145E-1,-7.663455E-9,1.3E1,4.216E1,-2.0571432E-1,-7.663455E-9,-1.4400001E-1,5E0,2.8800002E-1,4.1471186E0,1.722E2,-1.2857145E-1,-7.663455E-9,-1.6363637E-1,1.0362287E1,5.25E1,2E1,9.596E1,1.564E1,2.5714284E-1,1.9E1,-2.2277035E-1,7.362E1,1.2413793E-1,2.5714284E-1,-3.600001E-2,4.81E1,-6.206898E-2,1.2857142E-1,-1.2857145E-1,-2.1844664E-1,-1.23287685E-1,-7.663455E-9,-1.2857145E-1,-3.600001E-2,3.1034482E-1,2.117646E-2,-1.5652177E-1,2.9675674E-1,-6.206898E-2,1.9459459E-1,-1.2857145E-1,-9.753488E-9,-1.8318588E-1,-6.206898E-2,-2.1450256E-1,-1.818068E-1,7.2E-2,8.780487E-2,-1.7560977E-1,-1.956522E-1,1.2857142E-1,-1.7628868E-1,-9.753488E-9,-2.1853037E-1,-8.181819E-2],"split_indices":[12,21,11,34,5,39,5,3,27,29,31,27,28,12,11,5,0,39,0,26,34,3,10,26,0,0,19,31,11,9,3,3,30,0,0,5,5,12,27,0,0,5,0,0,26,0,0,21,10,11,0,11,9,26,3,0,0,31,3,0,0,0,29,0,12,19,0,0,0,12,19,39,22,10,0,30,0,9,0,0,0,10,0,0,0,0,0,0,0,0,0,0,0,0,0,0,0,0,0,0,0,0,0,0,0,0,0,0,0,0,0],"split_type":[0,0,0,0,0,0,0,0,0,0,0,0,1,0,0,0,0,0,0,0,0,0,0,0,0,0,0,0,0,0,0,0,0,0,0,0,0,0,0,0,0,0,0,0,0,0,0,0,0,0,0,0,0,0,0,0,0,0,0,0,0,0,0,0,0,0,0,0,0,0,0,0,0,0,0,0,0,0,0,0,0,0,0,0,0,0,0,0,0,0,0,0,0,0,0,0,0,0,0,0,0,0,0,0,0,0,0,0,0,0,0],"sum_hessian":[1.5182222E3,1.8399998E2,1.3342222E3,1.0133333E2,8.2666664E1,4.0888885E1,1.2933333E3,9.2888885E1,8.444444E0,5.7777775E1,2.4888887E1,3.2888885E1,7.9999995E0,1.2342222E3,5.9111107E1,9.155555E1,1.3333333E0,7.1111107E0,1.3333333E0,1.7777777E1,3.9999996E1,1.911111E1,5.7777777E0,3.1111109E1,1.7777777E0,3.9999998E0,3.9999998E0,7.1022217E2,5.2399994E2,1.7777777E1,4.1333332E1,2.6666665E0,8.8888885E1,1.3333333E0,5.7777777E0,1.1999999E1,5.7777777E0,1.6888887E1,2.311111E1,1.3333333E0,1.7777777E1,3.9999998E0,1.7777777E0,1.2444444E1,1.8666666E1,2.222222E0,1.7777777E0,6.8355554E2,2.6666664E1,5.217778E2,2.222222E0,1.4666666E1,3.111111E0,3.8666664E1,2.6666665E0,1.3333333E0,1.3333333E0,8.622221E1,2.6666665E0,1.0666666E1,1.3333333E0,1.7777777E0,3.9999998E0,1.7777777E0,1.5111111E1,2.1777777E1,1.3333333E0,1.3333333E0,2.6666665E0,4.444444E0,1.4222221E1,5.9422217E2,8.933333E1,2.5333332E1,1.3333333E0,1.8222221E1,5.035555E2,1.2444444E1,2.222222E0,1.3333333E0,1.7777777E0,3.6444443E1,2.222222E0,1.3333333E0,1.3333333E0,7.911111E1,7.1111107E0,1.3333333E0,1.3333333E0,1.7777777E0,2.222222E0,8.444444E0,6.666666E0,1.9555553E1,2.222222E0,3.111111E0,1.3333333E0,2.6666665E0,1.1555555E1,2.222222E0,5.9199994E2,8.755555E1,1.7777777E0,3.5555553E0,2.1777777E1,1.6888887E1,1.3333333E0,9.777777E0,2.6666665E0,3.3777775E1,2.6666665E0],"tree_param":{"num_deleted":"0","num_feature":"40","num_nodes":"111","size_leaf_vector":"1"}},{"base_weights":[-4.1907456E-2,-1.257593E-1,4.5007524E-1,-1.9572313E-1,4.3846786E-2,9.069767E-1,2.299189E-1,-5.6520507E-2,-2.9208434E-1,6.420233E-1,-4.727432E-3,1.3043475E-1,9.846154E-1,3.8048737E-2,8.0058646E-1,-9.750715E-2,4.9367085E-1,-4.673035E-1,-2.2391863E-1,-2.0000003E-1,7.8733027E-1,6.2983423E-1,-4.298572E-2,-1.6363637E-1,5.9999996E-1,1.0458715E0,1.2244894E-1,-2.4870511E-2,9.1304344E-1,1.118644E0,4.3352598E-1,4.5298517E-2,-2.1789663E-1,-2.2222227E-1,8.181818E-1,3.287671E-1,-5.0886667E-1,-2.9154763E-1,-7.110305E-2,1.2857142E-1,-1.6363637E-1,9.047619E-1,7.31707E-2,8.407643E-1,-1.6363637E-1,-9.926046E-2,2.8571424E-1,3.1034482E-1,-3.600001E-2,1.0831758E0,-3.600001E-2,2.1724138E-1,-1.5517244E-1,-3.2179937E-1,1.0072988E-1,7.2E-2,3.226415E-1,4.1860464E-1,3.1578943E-1,-4.2857146E-1,7.218045E-1,-1.242604E-1,2.7536228E-1,4.2477873E-1,-2.615956E-1,5.454545E-1,-1.894737E-1,-2.44898E-1,1.176E0,7.35849E-1,-1.5517244E-1,-5.4283434E-1,3.1578943E-1,-3.432499E-2,-3.4586844E-1,2.8571386E-2,-6.52174E-1,1.0057803E0,-3.600001E-2,1.7999999E-1,-1.4400001E-1,1.032E0,7.31707E-2,-1.5285783E-1,2.8037378E-1,9.473684E-1,1.8320607E-1,-3.600001E-2,1.122807E0,3.0612242E-1,-4.3373498E-1,1.8968382E-1,-4.83871E-1,3.1034482E-1,-3.2432437E-1,-1.7027028E-1,-7.663455E-9,9.230769E-1,-1.4400001E-1,-5.3136546E-2,2.8536585E-1,1.7088608E-1,2.7480904E-2,2.7391306E-1,-8.490568E-2,-9.017343E-2,1.9565217E-1,-7.663455E-9,2.5714284E-1,7.2E-2,-1.6363637E-1,3.880734E-1,7.2E-2,-3.600001E-2,3.4054056E-1,-1.850552E-1,-7.241381E-2,2.4545455E-1,-8.181819E-2,-3.5207838E-2,2.6756757E-1,-1.5544268E-1,-7.651009E-2,1.6127166E-1,-2.5352126E-2,-2.1140942E-1,-7.663455E-9,3.242236E-1,-7.663455E-9,3.4247786E-1,-7.663455E-9,-1.2857145E-1,1.2413793E-1,-5.9913184E-2,1.0725388E-1,-1.20618574E-1,1.6609442E-1,3.5999998E-1,-7.663455E-9,-1.5652177E-1,9.729729E-2,-7.663455E-9,3.449102E-1,-1.4400001E-1,2.4545455E-1,8.780487E-2,-1.6589864E-1,2.1556875E-2,2.146789E-1,7.2E-2,-1.9870132E-1,-1.4400001E-1,-7.663455E-9,3.9452055E-1,6.792452E-2],"categories":[1,2,3,4,1],"categories_nodes":[46,77],"categories_segments":[0,4],"categories_sizes":[4,1],"default_left":[0,0,0,0,1,1,0,0,0,0,0,0,0,0,0,0,0,0,0,0,0,0,0,0,0,0,0,0,0,0,0,0,0,0,0,0,0,0,0,0,0,0,0,0,0,0,1,0,0,0,0,0,0,0,0,0,0,0,0,0,0,0,0,0,0,0,0,0,0,0,0,0,0,0,0,0,0,1,0,0,0,0,0,0,0,0,0,0,0,0,0,0,0,0,0,0,0,0,0,0,0,0,0,0,0,0,0,0,0,0,0,0,0,0,0,0,0,0,0,0,0,0,0,0,0,0,0,0,0,0,0,0,0,0,0,0,0,0,0,0,0,0,0,0,0,0,0,0,0,0,0,0,0,0,0],"id":2,"left_children":[1,3,5,7,9,11,13,15,17,19,21,23,25,27,29,31,33,35,37,39,41,43,45,-1,47,49,51,53,55,57,59,61,63,65,67,69,71,73,75,-1,-1,77,79,81,-1,83,85,-1,-1,87,-1,-1,-1,89,91,-1,-1,-1,93,95,97,99,101,103,105,107,-1,109,111,113,-1,115,117,119,121,123,125,127,-1,-1,-1,129,131,133,135,137,139,-1,141,143,145,147,149,-1,151,-1,-1,153,-1,-1,-1,-1,-1,-1,-1,-1,-1,-1,-1,-1,-1,-1,-1,-1,-1,-1,-1,-1,-1,-1,-1,-1,-1,-1,-1,-1,-1,-1,-1,-1,-1,-1,-1,-1,-1,-1,-1,-1,-1,-1,-1,-1,-1,-1,-1,-1,-1,-1,-1,-1,-1,-1,-1,-1,-1],"loss_changes":[6.2730076E1,1.5420256E1,2.2066513E1,1.2319656E1,1.1047527E1,4.1923294E0,1.6478813E1,8.559695E0,6.383568E0,3.651291E0,8.586149E0,2.760474E0,3.3047829E0,6.2927475E0,3.938427E0,6.063469E0,6.2994504E0,5.170822E0,4.0408325E0,1.3194805E0,1.9931488E0,5.44422E0,6.1962504E0,0E0,1.6882759E0,2.7636642E0,2.4700916E0,4.0312014E0,5.800166E-1,3.9283867E0,5.0865316E0,6.3493996E0,5.481455E0,3.1727805E0,7.2618027E0,3.1740358E0,4.20821E0,3.7902126E0,7.0781837E0,0E0,0E0,2.294609E0,1.6156098E0,2.485178E0,0E0,5.8509083E0,3.1498597E0,0E0,0E0,2.9374542E0,0E0,0E0,0E0,2.3897636E0,4.0497546E0,0E0,0E0,0E0,3.2491293E0,3.2432437E-1,4.0176754E0,5.506195E0,3.678832E0,4.597516E0,6.595937E0,6.233767E-1,0E0,9.243785E-1,1.2180538E0,2.148618E0,0E0,2.9475937E0,2.0956936E0,3.838979E0,3.3818054E0,6.0889177E0,6.127801E-1,1.4493256E0,0E0,0E0,0E0,1.5708313E0,9.559053E-1,6.0680704E0,6.874151E0,1.515789E0,4.5132E0,0E0,1.7211914E0,2.5843415E0,2.5586967E0,4.0865974E0,1.493892E0,0E0,2.0756751E-1,0E0,0E0,3.2523603E0,0E0,0E0,0E0,0E0,0E0,0E0,0E0,0E0,0E0,0E0,0E0,0E0,0E0,0E0,0E0,0E0,0E0,0E0,0E0,0E0,0E0,0E0,0E0,0E0,0E0,0E0,0E0,0E0,0E0,0E0,0E0,0E0,0E0,0E0,0E0,0E0,0E0,0E0,0E0,0E0,0E0,0E0,0E0,0E0,0E0,0E0,0E0,0E0,0E0,0E0,0E0,0E0,0E0,0E0,0E0,0E0,0E0],"parents":[2147483647,0,0,1,1,2,2,3,3,4,4,5,5,6,6,7,7,8,8,9,9,10,10,11,11,12,12,13,13,14,14,15,15,16,16,17,17,18,18,19,19,20,20,21,21,22,22,24,24,25,25,26,26,27,27,28,28,29,29,30,30,31,31,32,32,33,33,34,34,35,35,36,36,37,37,38,38,41,41,42,42,43,43,45,45,46,46,49,49,53,53,54,54,58,58,59,59,60,60,61,61,62,62,63,63,64,64,65,65,67,67,68,68,69,69,71,71,72,72,73,73,74,74,75,75,76,76,77,77,81,81,82,82,83,83,84,84,85,85,86,86,88,88,89,89,90,90,91,91,92,92,94,94,97,97],"right_children":[2,4,6,8,10,12,14,16,18,20,22,24,26,28,30,32,34,36,38,40,42,44,46,-1,48,50,52,54,56,58,60,62,64,66,68,70,72,74,76,-1,-1,78,80,82,-1,84,86,-1,-1,88,-1,-1,-1,90,92,-1,-1,-1,94,96,98,100,102,104,106,108,-1,110,112,114,-1,116,118,120,122,124,126,128,-1,-1,-1,130,132,134,136,138,140,-1,142,144,146,148,150,-1,152,-1,-1,154,-1,-1,-1,-1,-1,-1,-1,-1,-1,-1,-1,-1,-1,-1,-1,-1,-1,-1,-1,-1,-1,-1,-1,-1,-1,-1,-1,-1,-1,-1,-1,-1,-1,-1,-1,-1,-1,-1,-1,-1,-1,-1,-1,-1,-1,-1,-1,-1,-1,-1,-1,-1,-1,-1,-1,-1,-1],"split_conditions":[1.0989178E1,6.79E0,7.25E0,1.7334E2,2.76E2,2.65E2,1.6110943E1,9.647E1,2.41E0,5.98254E0,4.8788733E0,7.2E1,7.9917207E0,8.726E1,6.75E1,5.78E0,3.003E1,1.402E1,3.0647E2,1.21E1,7E0,6.659E1,4.64E0,-1.6363637E-1,7.1883307E0,4.241E1,7.4E1,6.92E1,1.678E1,1.54E0,8.6E-1,5.07E0,1.845E1,9.828E1,2.56E0,1.67E0,4.21E1,7.2E1,2.4388E2,1.2857142E-1,-1.6363637E-1,4.153E1,6.786E1,2.1801E2,-1.6363637E-1,9.817E1,1E-45,3.1034482E-1,-3.600001E-2,3.89E0,-3.600001E-2,2.1724138E-1,-1.5517244E-1,2.1E2,8.604E1,7.2E-2,3.226415E-1,4.1860464E-1,1.83E0,7.762E1,9.13E0,9.130925E0,2.78E0,1.907E3,4.95E0,7.3E1,-1.894737E-1,1.73E0,4.016E1,2.5771E2,-1.5517244E-1,1.69E0,4.348E1,3.1883E2,3.1834738E0,2.67E0,5.84E0,1E-45,-3.600001E-2,1.7999999E-1,-1.4400001E-1,3.366E1,7.4E-1,6.5E0,2.7E0,3.741E1,4.546E1,-3.600001E-2,2.656E1,9.4E1,2.8215775E0,8.56E0,-6E0,3.1034482E-1,7.4E1,-1.7027028E-1,-7.663455E-9,1.89E0,-1.4400001E-1,-5.3136546E-2,2.8536585E-1,1.7088608E-1,2.7480904E-2,2.7391306E-1,-8.490568E-2,-9.017343E-2,1.9565217E-1,-7.663455E-9,2.5714284E-1,7.2E-2,-1.6363637E-1,3.880734E-1,7.2E-2,-3.600001E-2,3.4054056E-1,-1.850552E-1,-7.241381E-2,2.4545455E-1,-8.181819E-2,-3.5207838E-2,2.6756757E-1,-1.5544268E-1,-7.651009E-2,1.6127166E-1,-2.5352126E-2,-2.1140942E-1,-7.663455E-9,3.242236E-1,-7.663455E-9,3.4247786E-1,-7.663455E-9,-1.2857145E-1,1.2413793E-1,-5.9913184E-2,1.0725388E-1,-1.20618574E-1,1.6609442E-1,3.5999998E-1,-7.663455E-9,-1.5652177E-1,9.729729E-2,-7.663455E-9,3.449102E-1,-1.4400001E-1,2.4545455E-1,8.780487E-2,-1.6589864E-1,2.1556875E-2,2.146789E-1,7.2E-2,-1.9870132E-1,-1.4400001E-1,-7.663455E-9,3.9452055E-1,6.792452E-2],"split_indices":[21,17,17,20,39,39,21,3,34,21,21,1,11,22,3,17,20,26,20,16,36,22,18,0,11,16,1,26,4,25,25,18,22,26,34,25,16,1,26,0,0,16,3,20,0,3,35,0,0,17,0,0,0,39,3,0,0,0,18,3,17,21,34,39,24,1,0,34,4,20,0,24,16,26,21,18,18,2,0,0,0,16,24,13,34,4,26,0,3,39,11,17,30,0,1,0,0,25,0,0,0,0,0,0,0,0,0,0,0,0,0,0,0,0,0,0,0,0,0,0,0,0,0,0,0,0,0,0,0,0,0,0,0,0,0,0,0,0,0,0,0,0,0,0,0,0,0,0,0,0,0,0,0,0,0],"split_type":[0,0,0,0,0,0,0,0,0,0,0,0,0,0,0,0,0,0,0,0,0,0,0,0,0,0,0,0,0,0,0,0,0,0,0,0,0,0,0,0,0,0,0,0,0,0,1,0,0,0,0,0,0,0,0,0,0,0,0,0,0,0,0,0,0,0,0,0,0,0,0,0,0,0,0,0,0,1,0,0,0,0,0,0,0,0,0,0,0,0,0,0,0,0,0,0,0,0,0,0,0,0,0,0,0,0,0,0,0,0,0,0,0,0,0,0,0,0,0,0,0,0,0,0,0,0,0,0,0,0,0,0,0,0,0,0,0,0,0,0,0,0,0,0,0,0,0,0,0,0,0,0,0,0,0],"sum_hessian":[1.5182222E3,1.2977777E3,2.2044443E2,9.186666E2,3.7911108E2,7.0666664E1,1.4977777E2,3.7644443E2,5.4222217E2,2.7555553E1,3.5155554E2,6.666666E0,6.3999996E1,1.12888885E2,3.6888885E1,3.5111108E2,2.5333332E1,1.5022221E2,3.9199997E2,3.9999998E0,2.3555553E1,1.911111E1,3.3244443E2,2.6666665E0,3.9999998E0,5.9555553E1,4.444444E0,1.0622221E2,6.666666E0,1.8666666E1,1.8222221E1,1.6088889E2,1.9022221E2,7.9999995E0,1.7333332E1,7.1111107E0,1.431111E2,2.7111108E2,1.20888885E2,1.3333333E0,2.6666665E0,1.9999998E1,3.5555553E0,1.6444443E1,2.6666665E0,2.8444443E2,4.7999996E1,2.222222E0,1.7777777E0,5.7777775E1,1.7777777E0,2.222222E0,2.222222E0,3.1111109E1,7.511111E1,1.7777777E0,4.8888884E0,1.3333332E1,5.333333E0,4.444444E0,1.3777777E1,9.2888885E1,6.799999E1,1.1555555E1,1.7866666E2,2.6666665E0,5.333333E0,4.444444E0,1.2888888E1,4.8888884E0,2.222222E0,1.3777777E2,5.333333E0,4.7555553E1,2.2355554E2,1.0399999E2,1.6888887E1,1.8222221E1,1.7777777E0,1.7777777E0,1.7777777E0,1.2888888E1,3.5555553E0,2.4977776E2,3.4666664E1,5.333333E0,4.2666664E1,1.7777777E0,5.5999996E1,4.444444E0,2.6666664E1,6.577777E1,9.333333E0,2.222222E0,3.111111E0,3.111111E0,1.3333333E0,1.1999999E1,1.7777777E0,8.933333E1,3.5555553E0,2.5333332E1,4.2666664E1,6.666666E0,4.8888884E0,1.7199998E2,6.666666E0,1.3333333E0,1.3333333E0,1.7777777E0,2.6666665E0,1.1111111E1,1.7777777E0,1.7777777E0,3.111111E0,1.0977777E2,2.7999998E1,2.6666665E0,2.6666665E0,4.4444443E1,3.111111E0,7.555555E1,1.4799998E2,1.8222221E1,8.577777E1,1.5555554E1,1.3333333E0,1.6888887E1,1.3333333E0,1.1555555E1,1.3333333E0,1.3333333E0,2.222222E0,2.2933331E2,2.0444443E1,9.777777E0,2.4888887E1,3.9999998E0,1.3333333E0,6.666666E0,3.5999996E1,1.3333333E0,5.4666664E1,1.7777777E0,2.6666665E0,3.5555553E0,2.311111E1,5.4666664E1,1.1111111E1,1.7777777E0,7.5555553E0,1.7777777E0,1.3333333E0,7.1111107E0,4.8888884E0],"tree_param":{"num_deleted":"0","num_feature":"40","num_nodes":"155","size_leaf_vector":"1"}},{"base_weights":[4.9164632E-1,5.3133994E-1,1.127869E-1,5.49391E-1,2.440913E-1,2.8879952E-1,-2.9084893E-2,5.686886E-1,2.5918868E-1,1.3434967E-1,6.786708E-1,4.0029562E-1,-1.9112611E-1,-1.1559289E-1,4.7388607E-1,7.08628E-1,5.3053916E-1,5.354943E-1,4.3723404E-2,-2.1849346E-1,2.8424E-1,9.80507E-1,-1.3532646E-1,4.5890257E-1,-1.565101E-1,-3.5415518E-1,2.1122703E-1,-1.6890915E-1,5.765069E-1,6.58995E-1,-1.3965721E-1,6.329151E-1,8.976671E-1,7.17069E-1,4.730895E-1,-3.7666714E-1,6.470183E-1,-4.234114E-1,1.8410856E-1,-1.9569546E-1,-3.93873E-2,5.957309E-1,-1.734206E-1,1.0345963E0,9.639992E-2,2.3024921E-1,-1.8458344E-1,5.2490705E-1,-2.4063835E-1,2.391268E-1,-5.433257E-1,1.6563204E-1,-2.8292674E-1,-3.4392253E-2,2.7492213E-1,8.249623E-1,-1.1581228E-1,7.513963E-1,4.5591602E-1,2.7611494E-1,9.391151E-1,6.6373354E-1,3.3385608E-1,1.5731038E-1,5.087673E-1,-1.56471E-1,2.7725573E-3,-2.408754E-1,7.2477794E-1,1.02288626E-1,-5.575803E-1,-3.2177746E-1,3.1811982E-1,-3.2498887E-1,5.846747E-1,-2.251878E-1,7.375049E-1,2.7087498E-2,-2.0414157E-1,1.0862953E-1,3.2750463E-1,3.1274235E-1,8.6206985E-1,1.1166266E-1,-1.6407719E-1,-7.312514E-4,1.1190347E-1,-3.2647045E-3,-1.8779829E-1,4.1092825E-1,-3.3929813E-1,1.0184669E-2,-4.200537E-1,3.0508277E-1,2.218261E-1,6.599034E-2,2.3968716E-1,3.7960142E-2,1.8513454E-1,-1.5244012E-1,2.1605459E-1,1.772456E-1,3.030599E-1,-8.981425E-2,2.0548232E-1,3.0076927E-1,2.3541348E-2,7.3501565E-2,1.68776E-1,1.0639946E-2,-1.22722074E-1,4.2639812E-3,2.445019E-1,-1.9213049E-1,8.883773E-3,4.7820646E-2,-1.8221965E-1,2.5301993E-1,1.734849E-2,1.2153667E-1,-1.7880486E-1,2.3453737E-2,2.690505E-1,-1.5396053E-1,6.723081E-2,-6.784978E-2,2.5084692E-1,-1.2459202E-1,1.05033234E-1,1.9704197E-1,2.4697583E-2,5.9414166E-3,2.7713394E-1,1.9581186E-2,2.9245922E-1,1.1371536E-1,-1.7948465E-1,1.8541877E-1,-5.815258E-2,1.2270783E-1,-1.3918726E-1,-1.676308E-2,1.22593634E-1],"categories":[0,0,0,0,2,3],"categories_nodes":[32,37,68,91],"categories_segments":[0,1,2,3],"categories_sizes":[1,1,1,3],"default_left":[0,0,0,0,0,0,0,0,0,0,0,0,0,0,0,0,0,0,0,0,0,0,0,0,0,0,0,0,0,0,0,0,1,0,0,0,0,1,0,0,0,0,0,0,0,0,0,0,0,0,0,0,0,0,0,0,0,0,0,0,0,0,0,0,0,0,0,0,1,0,0,0,0,0,0,0,0,0,0,0,0,0,0,0,0,0,0,0,0,0,0,1,0,0,0,0,0,0,0,0,0,0,0,0,0,0,0,0,0,0,0,0,0,0,0,0,0,0,0,0,0,0,0,0,0,0,0,0,0,0,0,0,0,0,0,0,0,0,0,0,0,0,0],"id":3,"left_children":[1,3,5,7,9,11,13,15,17,19,21,23,25,27,29,31,33,35,37,39,41,43,45,47,-1,49,-1,51,53,55,-1,57,59,61,63,65,67,69,71,-1,73,75,77,79,-1,-1,-1,81,83,85,87,89,91,-1,-1,93,-1,95,97,99,101,103,-1,105,107,-1,-1,109,111,-1,113,115,117,119,121,123,125,127,-1,-1,-1,129,131,-1,-1,-1,-1,-1,-1,133,135,137,139,-1,141,-1,-1,-1,-1,-1,-1,-1,-1,-1,-1,-1,-1,-1,-1,-1,-1,-1,-1,-1,-1,-1,-1,-1,-1,-1,-1,-1,-1,-1,-1,-1,-1,-1,-1,-1,-1,-1,-1,-1,-1,-1,-1,-1,-1,-1,-1,-1,-1],"loss_changes":[2.4463226E1,7.518036E0,3.9018779E0,7.624237E0,4.156061E0,3.8049622E0,3.8507056E0,6.566223E0,5.2372746E0,3.888459E0,4.483449E0,3.3121452E0,2.265265E0,2.8738084E0,2.5672057E0,3.3761597E0,1.0653198E1,4.1731577E0,3.4052238E0,1.694302E0,7.4040055E0,1.3245392E-1,2.9285831E0,2.619585E0,0E0,1.5159917E0,0E0,2.741072E0,1.4225655E0,2.2737036E0,0E0,3.8550415E0,1.7094154E0,4.319229E0,8.788666E0,2.7548194E-1,2.5763397E0,1.4235756E0,2.7944584E0,0E0,3.1722014E0,3.7388458E0,2.2057686E0,5.0026894E-2,0E0,0E0,0E0,3.2825813E0,1.2061784E0,1.1993405E-1,4.1881943E-1,2.4412932E0,2.136485E0,0E0,0E0,9.377532E-1,0E0,2.8157883E0,4.318466E0,2.5230203E0,1.166584E0,4.5684433E0,0E0,5.3429685E0,9.895966E0,0E0,0E0,1.7959586E-1,2.0551052E0,0E0,5.352011E-1,1.3080904E0,4.312277E0,2.6400552E0,8.1694865E-1,7.991456E-1,2.6999388E0,2.4860873E0,0E0,0E0,0E0,2.4866118E0,9.4895935E-1,0E0,0E0,0E0,0E0,0E0,0E0,2.4627483E0,1.4591671E0,2.337856E0,1.5061479E0,0E0,2.1504058E-1,0E0,0E0,0E0,0E0,0E0,0E0,0E0,0E0,0E0,0E0,0E0,0E0,0E0,0E0,0E0,0E0,0E0,0E0,0E0,0E0,0E0,0E0,0E0,0E0,0E0,0E0,0E0,0E0,0E0,0E0,0E0,0E0,0E0,0E0,0E0,0E0,0E0,0E0,0E0,0E0,0E0,0E0,0E0,0E0,0E0,0E0,0E0,0E0],"parents":[2147483647,0,0,1,1,2,2,3,3,4,4,5,5,6,6,7,7,8,8,9,9,10,10,11,11,12,12,13,13,14,14,15,15,16,16,17,17,18,18,19,19,20,20,21,21,22,22,23,23,25,25,27,27,28,28,29,29,31,31,32,32,33,33,34,34,35,35,36,36,37,37,38,38,40,40,41,41,42,42,43,43,47,47,48,48,49,49,50,50,51,51,52,52,55,55,57,57,58,58,59,59,60,60,61,61,63,63,64,64,67,67,68,68,70,70,71,71,72,72,73,73,74,74,75,75,76,76,77,77,81,81,82,82,89,89,90,90,91,91,92,92,94,94],"right_children":[2,4,6,8,10,12,14,16,18,20,22,24,26,28,30,32,34,36,38,40,42,44,46,48,-1,50,-1,52,54,56,-1,58,60,62,64,66,68,70,72,-1,74,76,78,80,-1,-1,-1,82,84,86,88,90,92,-1,-1,94,-1,96,98,100,102,104,-1,106,108,-1,-1,110,112,-1,114,116,118,120,122,124,126,128,-1,-1,-1,130,132,-1,-1,-1,-1,-1,-1,134,136,138,140,-1,142,-1,-1,-1,-1,-1,-1,-1,-1,-1,-1,-1,-1,-1,-1,-1,-1,-1,-1,-1,-1,-1,-1,-1,-1,-1,-1,-1,-1,-1,-1,-1,-1,-1,-1,-1,-1,-1,-1,-1,-1,-1,-1,-1,-1,-1,-1,-1,-1],"split_conditions":[1.5670775E1,2.1E1,3.81E0,8.756E1,7.8E1,2.1011332E1,2.871E3,7E0,3.19E0,7.7E-1,1.2E1,3.3305E2,4.97E0,2.4E0,1.3692E2,1.4E1,9E0,7.361E1,7.2E1,2.2E1,1.59E0,3.957E1,1.916E1,8.512E1,-1.565101E-1,1.54E0,2.1122703E-1,8.58E2,1.6E1,3.745E1,-1.3965721E-1,5.475E1,1E-45,1.6602E2,4.666241E0,2.39E0,8.865E1,1E-45,2.1E1,-1.9569546E-1,2.46E0,6E0,1.447263E1,9.4E1,9.639992E-2,2.3024921E-1,-1.8458344E-1,4.995E1,2.922E1,1.31E0,9.1E-1,1.2E1,4.7E1,-3.4392253E-2,2.7492213E-1,2.96E0,-1.1581228E-1,8.9E-1,6.049E1,9.693256E0,7.2E-1,1.723E1,3.3385608E-1,1.269E1,1.14E0,-1.56471E-1,2.7725573E-3,8.8E1,1E-45,1.02288626E-1,1.99E0,4.16E0,8E0,8.2E-1,1.444E3,1.2442E2,8.6E-1,1.901E1,-2.0414157E-1,1.0862953E-1,3.2750463E-1,2.158E1,1.286E1,1.1166266E-1,-1.6407719E-1,-7.312514E-4,1.1190347E-1,-3.2647045E-3,-1.8779829E-1,6.149E1,4.07E0,1E-45,1E1,3.0508277E-1,6.5E-1,6.599034E-2,2.3968716E-1,3.7960142E-2,1.8513454E-1,-1.5244012E-1,2.1605459E-1,1.772456E-1,3.030599E-1,-8.981425E-2,2.0548232E-1,3.0076927E-1,2.3541348E-2,7.3501565E-2,1.68776E-1,1.0639946E-2,-1.22722074E-1,4.2639812E-3,2.445019E-1,-1.9213049E-1,8.883773E-3,4.7820646E-2,-1.8221965E-1,2.5301993E-1,1.734849E-2,1.2153667E-1,-1.7880486E-1,2.3453737E-2,2.690505E-1,-1.5396053E-1,6.723081E-2,-6.784978E-2,2.5084692E-1,-1.2459202E-1,1.05033234E-1,1.9704197E-1,2.4697583E-2,5.9414166E-3,2.7713394E-1,1.9581186E-2,2.9245922E-1,1.1371536E-1,-1.7948465E-1,1.8541877E-1,-5.815258E-2,1.2270783E-1,-1.3918726E-1,-1.676308E-2,1.22593634E-1],"split_indices":[12,31,5,22,0,12,39,29,5,25,30,7,18,25,27,31,31,27,1,31,25,16,16,22,0,18,0,39,31,16,0,22,38,27,12,5,22,38,0,0,6,29,12,39,0,0,0,22,7,25,6,30,0,0,0,6,0,6,22,12,25,3,0,7,13,0,0,22,38,0,25,5,31,6,39,27,13,16,0,0,0,16,16,0,0,0,0,0,0,22,5,28,31,0,25,0,0,0,0,0,0,0,0,0,0,0,0,0,0,0,0,0,0,0,0,0,0,0,0,0,0,0,0,0,0,0,0,0,0,0,0,0,0,0,0,0,0,0,0,0,0,0,0],"split_type":[0,0,0,0,0,0,0,0,0,0,0,0,0,0,0,0,0,0,0,0,0,0,0,0,0,0,0,0,0,0,0,0,1,0,0,0,0,1,0,0,0,0,0,0,0,0,0,0,0,0,0,0,0,0,0,0,0,0,0,0,0,0,0,0,0,0,0,0,1,0,0,0,0,0,0,0,0,0,0,0,0,0,0,0,0,0,0,0,0,0,0,1,0,0,0,0,0,0,0,0,0,0,0,0,0,0,0,0,0,0,0,0,0,0,0,0,0,0,0,0,0,0,0,0,0,0,0,0,0,0,0,0,0,0,0,0,0,0,0,0,0,0,0],"sum_hessian":[1.6297109E3,1.4747924E3,1.5491856E2,1.3867357E3,8.8056625E1,6.867794E1,8.624062E1,1.2993717E3,8.736403E1,7.1348564E1,1.6708054E1,5.586527E1,1.2812673E1,7.4241684E1,1.1998945E1,2.7458127E2,1.0247904E3,3.762704E1,4.9736984E1,2.1136164E1,5.0212402E1,1.2039252E1,4.668802E0,5.2998665E1,2.8666031E0,1.1350084E1,1.4625884E0,6.9633385E1,4.6082964E0,1.0273144E1,1.7258011E0,1.9916206E2,7.541921E1,2.3860295E2,7.861875E2,3.8402176E0,3.3786823E1,1.1027305E1,3.870968E1,5.4042068E0,1.5731957E1,2.969788E1,2.0514524E1,1.0599928E1,1.4393245E0,1.4125601E0,3.2562416E0,4.8657295E1,4.34137E0,2.6802201E0,8.669864E0,1.75848E1,5.2048584E1,1.7376688E0,2.8706274E0,9.046944E0,1.2262008E0,1.1735843E2,8.180363E1,5.193873E0,7.022534E1,2.1262663E2,2.5976313E1,8.035819E1,7.058293E2,2.536329E0,1.3038884E0,2.55178E0,3.1235044E1,1.4164361E0,9.610868E0,7.81339E0,3.0896288E1,1.1121463E1,4.6104937E0,4.286906E0,2.5410975E1,1.5379458E1,5.135066E0,1.4039361E0,9.1959915E0,3.1047663E1,1.7609632E1,1.3749653E0,2.9664047E0,1.3058703E0,1.3743497E0,1.3172824E0,7.3525815E0,1.1960521E1,5.6242795E0,1.6884144E1,3.516444E1,6.342132E0,2.7048113E0,1.0102429E1,1.07256E2,2.7466204E1,5.4337425E1,1.8255575E0,3.3683157E0,1.3481387E1,5.6743954E1,4.298504E0,2.0832812E2,5.8561773E0,7.4502014E1,1.2055521E2,5.852741E2,1.264085E0,1.2876949E0,3.6497934E0,2.758525E1,8.342978E0,1.2678912E0,3.0749702E0,4.7384195E0,9.494914E0,2.1401375E1,2.8768501E0,8.244613E0,2.2348244E0,2.3756695E0,2.5256255E0,1.7612805E0,2.2397306E0,2.3171244E1,6.3699083E0,9.009549E0,1.1710604E1,1.9337059E1,1.292295E0,1.6317339E1,8.107108E0,3.8534129E0,1.3675289E0,4.256751E0,3.7329247E0,1.3151219E1,1.3502331E0,3.381421E1,1.3696938E0,1.3351175E0],"tree_param":{"num_deleted":"0","num_feature":"40","num_nodes":"143","size_leaf_vector":"1"}},{"base_weights":[-5.6933683E-1,-2.9355603E-1,-6.088898E-1,-5.6166154E-1,1.4701365E-2,-4.922456E-1,-6.4105034E-1,-2.3318541E-1,-5.944339E-1,2.9855835E-1,-4.3724784E-1,-5.131034E-1,-9.434565E-2,-6.114026E-1,-6.7283314E-1,2.489717E-1,-1.720702E-1,-2.8829578E-1,-6.1300534E-1,5.131536E-1,-7.586816E-2,7.558308E-2,-4.8597533E-1,-6.347083E-1,-4.3504384E-1,2.1346198E-1,-3.0516362E-1,-6.2685853E-1,-4.8385608E-1,-3.875166E-1,-2.0251448E-1,-1.1220035E-1,5.576141E-1,1.4423461E-1,-1.679767E-1,-6.4581126E-1,-3.8443452E-1,7.992052E-1,5.9035726E-2,4.544888E-1,-3.669139E-1,-5.645583E-1,4.0331535E-2,1.2671042E-2,-6.442866E-1,-1.45422E-1,-5.733199E-1,-1.7928126E-1,1.9059618E-1,-2.598484E-1,-6.3278353E-1,-5.1550895E-1,1.645764E-1,2.2406591E-2,-1.5824027E-1,2.4904196E-1,8.550476E-3,-3.20011E-1,-2.020865E-1,-1.807627E-1,4.6752263E-2,8.9710414E-1,-1.13586746E-1,6.528615E-1,-3.0961215E-1,-1.4786218E-1,2.8346756E-1,-1.877809E-1,-2.4309477E-2,-6.535831E-2,-6.278965E-1,-1.3824433E-1,1.691783E-1,-6.53937E-1,-1.9650528E-1,-3.6442426E-1,2.0326704E-1,-2.6245955E-1,-6.2958896E-1,-2.3108476E-1,2.0171477E-1,-4.577264E-1,1.5170777E-1,-6.348565E-1,-2.287892E-1,9.504095E-2,-5.7601744E-1,-1.6378863E-1,4.098919E-2,2.0994763E-1,-1.4406113E-1,3.717902E-2,3.192997E-1,-3.1227296E-2,3.071606E-1,1.1781821E-1,-1.4588007E-1,1.7205803E-1,-1.1076816E-1,1.1956669E-1,-1.3460556E-1,-4.9080383E-2,-1.9998191E-1,-1.9922118E-1,-5.965335E-2,-1.09170854E-1,1.6445851E-2,7.2025634E-2,-1.5431917E-1,-3.0589972E-2,2.3827532E-1,1.774002E-1,-1.5135422E-1,-3.5171904E-2,-1.9517039E-1,9.164576E-3,-1.1755892E-1,-1.7165852E-1,1.9294973E-2,-6.769151E-2,-1.9103335E-1,-1.2591548E-1,3.230145E-2,1.4798662E-1,-1.3721886E-1,-7.629962E-2,-1.877773E-1],"categories":[0,2,3,4,5,2],"categories_nodes":[27,37],"categories_segments":[0,5],"categories_sizes":[5,1],"default_left":[0,0,0,0,0,0,0,0,0,0,0,0,0,0,0,0,0,0,0,0,0,0,0,1,0,0,0,1,0,0,0,0,0,0,0,0,0,1,0,0,0,0,0,0,0,0,0,0,0,0,0,0,0,0,0,0,0,0,0,0,0,0,0,0,0,0,0,0,0,0,0,0,0,0,0,0,0,0,0,0,0,0,0,0,0,0,0,0,0,0,0,0,0,0,0,0,0,0,0,0,0,0,0,0,0,0,0,0,0,0,0,0,0,0,0,0,0,0,0,0,0,0,0,0,0,0,0],"id":4,"left_children":[1,3,5,7,9,11,13,15,17,19,21,23,25,27,29,31,-1,33,35,37,39,-1,41,43,45,-1,47,49,51,53,-1,-1,55,-1,-1,57,59,61,63,65,67,69,71,-1,73,75,77,-1,79,81,83,85,-1,-1,-1,-1,-1,87,-1,-1,89,91,-1,93,95,-1,-1,-1,97,99,101,-1,-1,103,105,107,109,111,113,115,-1,117,-1,119,121,123,125,-1,-1,-1,-1,-1,-1,-1,-1,-1,-1,-1,-1,-1,-1,-1,-1,-1,-1,-1,-1,-1,-1,-1,-1,-1,-1,-1,-1,-1,-1,-1,-1,-1,-1,-1,-1,-1,-1,-1,-1],"loss_changes":[1.4498993E1,1.4116816E1,4.09552E0,8.445244E-1,1.0442937E1,2.096527E0,4.5410156E-1,1.7726051E0,2.917328E-1,4.0538697E0,1.1774707E0,2.052826E0,2.6123571E0,6.5504456E-1,1.2252808E-2,1.1327844E0,0E0,1.6480503E0,3.2758522E-1,4.0956573E0,3.1112616E0,0E0,1.250422E0,6.3503647E-1,6.0282173E0,0E0,1.8355055E0,7.710724E-1,2.1431112E0,4.0719151E-1,0E0,0E0,4.977243E-1,0E0,0E0,3.795948E-1,1.1670282E0,2.586689E0,3.1366744E0,3.8134394E0,1.1268977E0,7.776718E-1,1.516629E0,0E0,2.7119064E-1,3.9422991E0,1.635582E0,0E0,1.2044952E0,1.5238829E0,2.0870972E-1,2.114252E0,0E0,0E0,0E0,0E0,0E0,8.041749E-1,0E0,0E0,2.0553243E0,2.2327375E0,0E0,1.6388423E0,1.3012829E0,0E0,0E0,0E0,1.5688789E0,8.95772E-1,3.018341E-1,0E0,0E0,2.835312E-1,1.6218889E-1,2.9767265E0,3.7218664E0,3.9137578E0,8.530235E-1,1.5911393E-1,0E0,4.7328627E-1,0E0,1.8649292E-1,2.842422E-1,1.5203824E0,6.573696E-1,0E0,0E0,0E0,0E0,0E0,0E0,0E0,0E0,0E0,0E0,0E0,0E0,0E0,0E0,0E0,0E0,0E0,0E0,0E0,0E0,0E0,0E0,0E0,0E0,0E0,0E0,0E0,0E0,0E0,0E0,0E0,0E0,0E0,0E0,0E0,0E0,0E0,0E0,0E0,0E0],"parents":[2147483647,0,0,1,1,2,2,3,3,4,4,5,5,6,6,7,7,8,8,9,9,10,10,11,11,12,12,13,13,14,14,15,15,17,17,18,18,19,19,20,20,22,22,23,23,24,24,26,26,27,27,28,28,29,29,32,32,35,35,36,36,37,37,38,38,39,39,40,40,41,41,42,42,44,44,45,45,46,46,48,48,49,49,50,50,51,51,57,57,60,60,61,61,63,63,64,64,68,68,69,69,70,70,73,73,74,74,75,75,76,76,77,77,78,78,79,79,81,81,83,83,84,84,85,85,86,86],"right_children":[2,4,6,8,10,12,14,16,18,20,22,24,26,28,30,32,-1,34,36,38,40,-1,42,44,46,-1,48,50,52,54,-1,-1,56,-1,-1,58,60,62,64,66,68,70,72,-1,74,76,78,-1,80,82,84,86,-1,-1,-1,-1,-1,88,-1,-1,90,92,-1,94,96,-1,-1,-1,98,100,102,-1,-1,104,106,108,110,112,114,116,-1,118,-1,120,122,124,126,-1,-1,-1,-1,-1,-1,-1,-1,-1,-1,-1,-1,-1,-1,-1,-1,-1,-1,-1,-1,-1,-1,-1,-1,-1,-1,-1,-1,-1,-1,-1,-1,-1,-1,-1,-1,-1,-1,-1,-1],"split_conditions":[4.700011E0,3.882126E0,1.9732E2,1.7611E2,1.49E2,6.75E0,9.184144E0,9.543E1,3.228E1,4.0553164E0,6.65E1,6.8294806E0,7.453E1,7.56482E0,1.8E-1,1.1497821E0,-1.720702E-1,2.399E1,2.31E0,6.318E1,2.3473E2,7.558308E-2,1.823E2,6.9E1,1.0985098E1,2.1346198E-1,7.362E1,1E-45,3.5287E2,2.344E1,-2.0251448E-1,-1.1220035E-1,2.436E1,1.4423461E-1,-1.679767E-1,1.66E2,2.934E1,1E-45,5.0672007E0,1.1266E2,9.2E-1,4.061E1,1.9953E2,1.2671042E-2,2.935E2,1.8E1,2.307E1,-1.7928126E-1,1.593E1,4.59E0,2.935E2,4.7E-1,1.645764E-1,2.2406591E-2,-1.5824027E-1,2.4904196E-1,8.550476E-3,1.9866E2,-2.020865E-1,-1.807627E-1,3.21E1,4.7735934E0,-1.13586746E-1,2.7502E2,4.306E1,-1.4786218E-1,2.8346756E-1,-1.877809E-1,1.39E0,4.947E1,2.7420435E0,-1.3824433E-1,1.691783E-1,1.8586E2,4.9559998E1,1.72E0,1.0639E2,4.4800005E0,4.538E1,1.28E0,2.0171477E-1,1.6602E2,1.5170777E-1,2E1,2.883E1,7.2770004E1,3.457E1,-1.6378863E-1,4.098919E-2,2.0994763E-1,-1.4406113E-1,3.717902E-2,3.192997E-1,-3.1227296E-2,3.071606E-1,1.1781821E-1,-1.4588007E-1,1.7205803E-1,-1.1076816E-1,1.1956669E-1,-1.3460556E-1,-4.9080383E-2,-1.9998191E-1,-1.9922118E-1,-5.965335E-2,-1.09170854E-1,1.6445851E-2,7.2025634E-2,-1.5431917E-1,-3.0589972E-2,2.3827532E-1,1.774002E-1,-1.5135422E-1,-3.5171904E-2,-1.9517039E-1,9.164576E-3,-1.1755892E-1,-1.7165852E-1,1.9294973E-2,-6.769151E-2,-1.9103335E-1,-1.2591548E-1,3.230145E-2,1.4798662E-1,-1.3721886E-1,-7.629962E-2,-1.877773E-1],"split_indices":[12,21,8,8,7,24,12,26,19,12,27,21,8,21,25,21,0,10,25,9,8,0,19,39,12,0,9,33,8,4,0,0,23,0,0,39,23,33,21,8,24,9,7,0,27,31,23,0,23,18,27,25,0,0,0,0,0,26,0,0,4,21,0,8,26,0,0,0,24,19,12,0,0,19,9,18,8,10,27,18,0,27,0,39,4,9,19,0,0,0,0,0,0,0,0,0,0,0,0,0,0,0,0,0,0,0,0,0,0,0,0,0,0,0,0,0,0,0,0,0,0,0,0,0,0,0,0],"split_type":[0,0,0,0,0,0,0,0,0,0,0,0,0,0,0,0,0,0,0,0,0,0,0,0,0,0,0,1,0,0,0,0,0,0,0,0,0,1,0,0,0,0,0,0,0,0,0,0,0,0,0,0,0,0,0,0,0,0,0,0,0,0,0,0,0,0,0,0,0,0,0,0,0,0,0,0,0,0,0,0,0,0,0,0,0,0,0,0,0,0,0,0,0,0,0,0,0,0,0,0,0,0,0,0,0,0,0,0,0,0,0,0,0,0,0,0,0,0,0,0,0,0,0,0,0,0,0],"sum_hessian":[1.3445952E3,1.6971173E2,1.1748834E3,9.032763E1,7.938411E1,2.5744696E2,9.174365E2,8.930705E0,8.139692E1,4.8968025E1,3.0416086E1,2.4434872E2,1.3098227E1,4.8513104E2,4.3230545E2,3.8068233E0,5.123882E0,5.6004643E0,7.5796455E1,3.0892239E1,1.8075788E1,1.7330941E0,2.8682991E1,9.274118E1,1.5160754E2,2.2234797E0,1.0874747E1,4.292057E2,5.5925343E1,4.6858582E0,4.276196E2,1.1910372E0,2.615786E0,1.260761E0,4.3397036E0,6.468677E1,1.1109686E1,1.8487158E1,1.240508E1,6.205773E0,1.1870016E1,2.4893463E1,3.7895284E0,1.2463479E0,9.149483E1,4.965528E1,1.0195227E2,6.710753E0,4.1639943E0,7.531704E0,4.2167398E2,5.4747574E1,1.1777699E0,1.1974511E0,3.4884071E0,1.3510058E0,1.2647803E0,6.0710335E0,5.8615738E1,7.1138654E0,3.99582E0,1.728851E1,1.1986498E0,4.4561143E0,7.948965E0,2.114989E0,4.0907836E0,6.2885966E0,5.58142E0,3.031622E0,2.1861841E1,1.9975407E0,1.7919877E0,8.911389E1,2.3809369E0,3.0471697E1,1.9183584E1,1.6494152E1,8.5458115E1,2.4979956E0,1.6659988E0,6.304259E0,1.2274452E0,4.189528E2,2.721203E0,4.885062E0,4.986251E1,3.930552E0,2.1404817E0,1.6378851E0,2.357935E0,3.3839605E0,1.3904548E1,1.7023362E0,2.7537782E0,1.3517152E0,6.59725E0,1.7995381E0,3.7818818E0,1.3536569E0,1.6779649E0,2.0846322E0,1.9777208E1,8.672361E1,2.3902817E0,1.1602209E0,1.2207161E0,5.937602E0,2.4534094E1,1.3195688E1,5.9878955E0,3.3245523E0,1.3169599E1,3.6207366E0,8.183738E1,1.2590873E0,1.2389084E0,5.0917244E0,1.2125344E0,2.5112352E0,4.1644156E2,1.5781881E0,1.1430149E0,2.9008965E0,1.984166E0,7.5155506E0,4.2346962E1],"tree_param":{"num_deleted":"0","num_feature":"40","num_nodes":"127","size_leaf_vector":"1"}},{"base_weights":[-2.3985257E-2,-9.118394E-2,3.448172E-1,9.409686E-2,-1.4496478E-1,5.644428E-2,4.9013916E-1,3.934616E-1,3.60128E-3,-6.841534E-2,-2.6404774E-1,3.440798E-1,-2.431913E-1,7.417344E-1,3.3188373E-1,-1.9121565E-1,5.4138476E-1,8.3760194E-2,-3.319104E-1,-7.7936456E-2,2.992683E-1,-2.9609329E-1,1.9314261E-1,6.4526695E-1,-1.3329738E-2,5.3150463E-1,-3.2994425E-1,1.6108617E-1,8.177781E-1,1.2058057E-1,6.156437E-1,-3.427151E-1,1.5485992E-1,-1.6162695E-1,6.163502E-1,2.08807E-2,4.35755E-1,-4.3516958E-1,2.9742786E-1,-1.4468233E-1,2.2554984E-2,-4.9450725E-1,-2.4217902E-1,7.7621645E-1,-2.8540355E-1,3.3917975E-1,3.6151433E-1,2.798595E-1,-1.6369095E-1,2.597201E-1,-2.5177747E-2,2.1840501E-1,-3.9623168E-1,-1.5732023E-1,5.180772E-1,8.659176E-1,-5.652185E-2,7.957846E-1,-7.8768894E-2,-2.4553013E-3,7.2951317E-1,-4.814703E-1,1.4019461E-1,6.793087E-1,-1.539259E-1,-7.228977E-2,3.4373078E-1,7.600292E-1,8.845126E-2,1.4418207E-1,-5.1729715E-1,3.0228585E-1,-1.6270283E-1,7.087441E-2,-2.0190254E-1,-1.7537467E-2,5.974674E-1,-5.262527E-1,1.474039E-1,-3.261212E-1,-3.0658841E-2,9.877387E-3,9.96072E-1,-5.18823E-1,2.5631565E-1,-2.045397E-1,9.408102E-1,-4.844956E-1,2.520371E-1,-5.295575E-1,1.3526629E-1,2.5496954E-1,5.458252E-3,9.576155E-1,4.957539E-1,9.870034E-1,-1.3645831E-1,-2.728846E-1,5.2099186E-1,3.8590544E-1,-1.5582193E-1,-1.3168219E-1,7.9101783E-1,-1.9278236E-1,-1.1355743E-2,5.0460204E-2,2.542983E-1,-3.2161172E-2,2.0174196E-1,2.2046235E-1,-4.2132963E-3,-5.096788E-2,2.8334367E-1,1.03883326E-1,-1.6735867E-1,-1.5694359E-1,2.836069E-1,5.3870242E-2,-1.7870677E-1,-1.5773703E-1,1.4523445E-1,-7.46798E-2,8.235104E-2,-7.3509164E-2,4.517243E-2,5.9675947E-2,-2.781214E-2,2.558711E-1,-9.651789E-2,-1.7618391E-1,-6.0450885E-2,2.8154412E-1,-1.4362368E-1,-1.2586431E-1,-3.3721544E-2,-1.6714738E-1,1.6176451E-2,1.3268991E-1,-1.2756513E-1,3.2164994E-1,1.0136603E-1,6.120312E-2,-1.964294E-1,1.734991E-1,-1.4919719E-1,3.1773275E-1,7.948277E-2,-1.9436102E-1,1.8033966E-2,1.794446E-1,-1.5174165E-1,-1.1610824E-2,-1.7616753E-1,-1.277565E-1,3.122297E-1,2.981176E-1,4.8458416E-2,-1.487352E-1,2.3022468E-1,3.1614572E-1,9.307331E-2,5.9035525E-2,-1.352448E-1,3.153172E-1,-1.1313825E-2,-1.2029836E-1,2.3658375E-1,2.729055E-1,3.767453E-2],"categories":[0,1,2,3,4,6,7,8,9,0,1,2,3,8,9,0,0,4,1,0,2,3,4,5,6,7,8,0,1,3,4,5,6,7,8,9],"categories_nodes":[1,6,7,8,11,59,97],"categories_segments":[0,9,15,16,18,19,27],"categories_sizes":[9,6,1,2,1,8,9],"default_left":[0,1,0,0,0,0,1,1,1,0,0,1,0,0,0,0,0,0,0,0,0,0,0,0,0,0,0,0,0,0,0,0,0,0,0,0,0,0,0,0,0,0,0,0,0,0,0,0,0,0,0,0,0,0,0,0,0,0,0,1,0,0,0,0,0,0,0,0,0,0,0,0,0,0,0,0,0,0,0,0,0,0,0,0,0,0,0,0,0,0,0,0,0,0,0,0,0,1,0,0,0,0,0,0,0,0,0,0,0,0,0,0,0,0,0,0,0,0,0,0,0,0,0,0,0,0,0,0,0,0,0,0,0,0,0,0,0,0,0,0,0,0,0,0,0,0,0,0,0,0,0,0,0,0,0,0,0,0,0,0,0,0,0,0,0,0,0,0,0],"id":5,"left_children":[1,3,5,7,9,11,13,15,17,19,21,23,25,27,29,31,33,35,37,39,-1,41,43,45,47,49,51,53,55,57,59,61,-1,-1,63,65,67,69,71,73,75,77,79,81,83,-1,85,-1,87,-1,-1,-1,89,-1,91,93,-1,95,97,99,101,103,-1,105,-1,107,109,111,113,115,117,-1,119,121,123,125,127,129,131,133,135,137,139,141,-1,143,145,147,149,151,153,-1,-1,155,157,159,-1,161,163,165,-1,-1,167,-1,-1,-1,-1,-1,-1,-1,-1,-1,-1,-1,-1,-1,-1,-1,-1,-1,-1,-1,-1,-1,-1,-1,-1,-1,-1,-1,-1,-1,-1,-1,-1,-1,-1,-1,-1,-1,-1,-1,-1,-1,-1,-1,-1,-1,-1,-1,-1,-1,-1,-1,-1,-1,-1,-1,-1,-1,-1,-1,-1,-1,-1,-1,-1,-1,-1],"loss_changes":[3.6852898E1,1.2544588E1,9.577431E0,7.6792955E0,8.870131E0,6.80018E0,5.8166733E0,5.7944517E0,5.9099126E0,6.115181E0,5.6417503E0,4.3333845E0,2.7799757E0,2.4286308E0,5.638936E0,1.6800289E0,4.6054716E0,3.9158802E0,2.883401E0,3.9641414E0,0E0,3.6949425E0,7.357014E0,2.596589E0,2.9060292E0,9.5423603E-1,2.775891E0,2.2195945E0,2.6347122E0,7.58131E0,2.8470507E0,1.5908706E0,0E0,0E0,3.8909073E0,4.582196E0,2.9540648E0,1.8260946E0,2.3099926E0,4.392653E0,5.462841E0,1.6106834E0,5.00358E0,1.977633E0,4.37453E0,0E0,5.190282E0,0E0,2.4626772E0,0E0,0E0,0E0,2.4827476E0,0E0,9.361731E-1,1.1842422E0,0E0,3.5154514E0,5.2689414E0,1.6631045E0,2.8006992E0,7.525332E-1,0E0,3.9546757E0,0E0,3.1508796E0,4.7829905E0,2.5174918E0,2.5402849E0,3.3562105E0,1.8801508E0,0E0,1.3926798E0,4.9657154E0,4.3051014E0,3.6322253E0,3.9018078E0,1.3067684E0,2.5923707E0,3.986967E0,3.651602E0,8.728788E-1,9.632206E-2,1.3998866E0,0E0,2.2428465E0,3.3593845E-1,9.5075965E-1,2.4800897E0,7.5301695E-1,4.314941E0,0E0,0E0,9.346733E-1,3.5527701E0,1.9024467E-1,0E0,2.9237533E0,3.3302162E0,1.816355E0,0E0,0E0,2.4750195E0,0E0,0E0,0E0,0E0,0E0,0E0,0E0,0E0,0E0,0E0,0E0,0E0,0E0,0E0,0E0,0E0,0E0,0E0,0E0,0E0,0E0,0E0,0E0,0E0,0E0,0E0,0E0,0E0,0E0,0E0,0E0,0E0,0E0,0E0,0E0,0E0,0E0,0E0,0E0,0E0,0E0,0E0,0E0,0E0,0E0,0E0,0E0,0E0,0E0,0E0,0E0,0E0,0E0,0E0,0E0,0E0,0E0,0E0,0E0,0E0,0E0,0E0,0E0,0E0,0E0,0E0],"parents":[2147483647,0,0,1,1,2,2,3,3,4,4,5,5,6,6,7,7,8,8,9,9,10,10,11,11,12,12,13,13,14,14,15,15,16,16,17,17,18,18,19,19,21,21,22,22,23,23,24,24,25,25,26,26,27,27,28,28,29,29,30,30,31,31,34,34,35,35,36,36,37,37,38,38,39,39,40,40,41,41,42,42,43,43,44,44,46,46,48,48,52,52,54,54,55,55,57,57,58,58,59,59,60,60,61,61,63,63,65,65,66,66,67,67,68,68,69,69,70,70,72,72,73,73,74,74,75,75,76,76,77,77,78,78,79,79,80,80,81,81,82,82,83,83,85,85,86,86,87,87,88,88,89,89,90,90,93,93,94,94,95,95,97,97,98,98,99,99,102,102],"right_children":[2,4,6,8,10,12,14,16,18,20,22,24,26,28,30,32,34,36,38,40,-1,42,44,46,48,50,52,54,56,58,60,62,-1,-1,64,66,68,70,72,74,76,78,80,82,84,-1,86,-1,88,-1,-1,-1,90,-1,92,94,-1,96,98,100,102,104,-1,106,-1,108,110,112,114,116,118,-1,120,122,124,126,128,130,132,134,136,138,140,142,-1,144,146,148,150,152,154,-1,-1,156,158,160,-1,162,164,166,-1,-1,168,-1,-1,-1,-1,-1,-1,-1,-1,-1,-1,-1,-1,-1,-1,-1,-1,-1,-1,-1,-1,-1,-1,-1,-1,-1,-1,-1,-1,-1,-1,-1,-1,-1,-1,-1,-1,-1,-1,-1,-1,-1,-1,-1,-1,-1,-1,-1,-1,-1,-1,-1,-1,-1,-1,-1,-1,-1,-1,-1,-1,-1,-1,-1,-1,-1,-1],"split_conditions":[1.0989178E1,1E-45,1.4939521E1,2.38E1,2.1936E2,3.88E0,1E-45,1E-45,1E-45,1.1818E2,1.0686E2,1E-45,1.2E1,2.314E1,1.5979466E1,8.740812E0,4.3106055E0,1.0654224E1,3.8E0,3.28E0,2.992683E-1,2.4413E2,1.1528E2,7.9E-1,1.86E0,2.683E1,3.53E0,7.073E1,3.05E0,2.318E1,2.49E0,5.7E0,1.5485992E-1,-1.6162695E-1,1.8E1,3.006E1,3E0,5.418311E0,2.52E0,2.3E0,1.0328E2,4.59E0,3.71E0,4.429448E0,1.1978E2,3.3917975E-1,1.47E0,2.798595E-1,3.94E0,2.597201E-1,-2.5177747E-2,2.1840501E-1,3.37E0,-1.5732023E-1,1.83E0,2.5E1,-5.652185E-2,7.6E0,2.949E1,1E-45,-1.8E1,4.93E0,1.4019461E-1,0E0,-1.539259E-1,6.69E0,1.7334E2,2.5E0,3.765E1,3.26E0,2.7E0,3.0228585E-1,4.17E0,2.04E1,5.57E0,3.72E0,3.417E1,1.5E1,2.2871175E0,2.954E1,2.0816574E0,-2E0,2.6E0,1.0797E2,2.5631565E-1,1.2401009E1,2.05E0,8.863E1,3.71E0,6.953106E0,3.46E0,2.5496954E-1,5.458252E-3,7.34E0,1.49E0,6.06E0,-1.3645831E-1,1E-45,1.19E0,2.0529844E1,-1.5582193E-1,-1.3168219E-1,3.77E0,-1.9278236E-1,-1.1355743E-2,5.0460204E-2,2.542983E-1,-3.2161172E-2,2.0174196E-1,2.2046235E-1,-4.2132963E-3,-5.096788E-2,2.8334367E-1,1.03883326E-1,-1.6735867E-1,-1.5694359E-1,2.836069E-1,5.3870242E-2,-1.7870677E-1,-1.5773703E-1,1.4523445E-1,-7.46798E-2,8.235104E-2,-7.3509164E-2,4.517243E-2,5.9675947E-2,-2.781214E-2,2.558711E-1,-9.651789E-2,-1.7618391E-1,-6.0450885E-2,2.8154412E-1,-1.4362368E-1,-1.2586431E-1,-3.3721544E-2,-1.6714738E-1,1.6176451E-2,1.3268991E-1,-1.2756513E-1,3.2164994E-1,1.0136603E-1,6.120312E-2,-1.964294E-1,1.734991E-1,-1.4919719E-1,3.1773275E-1,7.948277E-2,-1.9436102E-1,1.8033966E-2,1.794446E-1,-1.5174165E-1,-1.1610824E-2,-1.7616753E-1,-1.277565E-1,3.122297E-1,2.981176E-1,4.8458416E-2,-1.487352E-1,2.3022468E-1,3.1614572E-1,9.307331E-2,5.9035525E-2,-1.352448E-1,3.153172E-1,-1.1313825E-2,-1.2029836E-1,2.3658375E-1,2.729055E-1,3.767453E-2],"split_indices":[21,37,12,23,20,34,37,32,35,9,9,35,31,23,21,21,12,12,14,34,0,20,9,25,34,4,20,9,25,23,5,5,0,0,30,23,14,12,18,18,9,6,13,21,9,0,25,0,18,0,0,0,6,0,18,31,0,34,23,37,30,18,0,30,0,5,20,14,4,34,14,0,18,4,5,34,4,31,21,23,21,30,18,3,0,12,25,9,13,12,13,0,0,13,6,13,0,37,25,12,0,0,6,0,0,0,0,0,0,0,0,0,0,0,0,0,0,0,0,0,0,0,0,0,0,0,0,0,0,0,0,0,0,0,0,0,0,0,0,0,0,0,0,0,0,0,0,0,0,0,0,0,0,0,0,0,0,0,0,0,0,0,0,0,0,0,0,0,0],"split_type":[0,1,0,0,0,0,1,1,1,0,0,1,0,0,0,0,0,0,0,0,0,0,0,0,0,0,0,0,0,0,0,0,0,0,0,0,0,0,0,0,0,0,0,0,0,0,0,0,0,0,0,0,0,0,0,0,0,0,0,1,0,0,0,0,0,0,0,0,0,0,0,0,0,0,0,0,0,0,0,0,0,0,0,0,0,0,0,0,0,0,0,0,0,0,0,0,0,1,0,0,0,0,0,0,0,0,0,0,0,0,0,0,0,0,0,0,0,0,0,0,0,0,0,0,0,0,0,0,0,0,0,0,0,0,0,0,0,0,0,0,0,0,0,0,0,0,0,0,0,0,0,0,0,0,0,0,0,0,0,0,0,0,0,0,0,0,0,0,0],"sum_hessian":[1.4847526E3,1.2565518E3,2.2820076E2,2.8251334E2,9.7403845E2,7.6930466E1,1.512703E2,6.480075E1,2.1771259E2,5.9386316E2,3.8017526E2,3.9175537E1,3.775493E1,5.698629E1,9.4284004E1,1.3025164E1,5.177559E1,1.7633401E2,4.1378567E1,5.8952454E2,4.3386445E0,3.5560263E2,2.4572649E1,2.082284E1,1.8352697E1,3.28586E0,3.446907E1,6.960006E0,5.0026283E1,5.4858395E1,3.942561E1,1.1152329E1,1.8728341E0,2.9586751E0,4.8816914E1,1.5050711E2,2.5826904E1,3.581132E1,5.5672436E0,3.539759E2,2.3554863E2,7.42345E1,2.8136813E2,1.0796214E1,1.3776435E1,6.5814433E0,1.4241397E1,1.8029451E0,1.6549753E1,1.8658428E0,1.4200171E0,1.4437525E0,3.302532E1,2.2228286E0,4.737178E0,4.7875168E1,2.1511161E0,1.1822668E1,4.3035725E1,6.2855005E0,3.314011E1,9.867653E0,1.2846771E0,4.661688E1,2.200038E0,1.1740236E2,3.3104755E1,1.2741715E1,1.3085188E1,4.3524294E0,3.1458893E1,1.7210395E0,3.8462043E0,7.420319E1,2.797727E2,2.2109941E2,1.4449229E1,7.090795E1,3.3265464E0,2.010423E2,8.032583E1,2.6397839E0,8.15643E0,1.1886902E1,1.8895324E0,7.5302215E0,6.7111754E0,9.247966E0,7.301787E0,2.6405235E1,6.6200824E0,2.4263663E0,2.3108113E0,3.709812E1,1.0777045E1,1.0437605E1,1.3850636E0,3.2924538E1,1.0111187E1,3.7338982E0,2.5516021E0,1.3503176E0,3.1789793E1,6.909367E0,2.9582858E0,1.2045751E1,3.4571125E1,1.12962776E2,4.4395857E0,1.5311349E1,1.7793406E1,2.1220589E0,1.06196575E1,9.685635E0,3.3995535E0,2.5638945E0,1.7885349E0,3.0505393E0,2.8408354E1,2.5832336E0,1.2629706E0,2.8780249E1,4.5422943E1,2.4954411E2,3.0228588E1,5.656616E1,1.6453325E2,1.1363522E1,3.0857077E0,5.9010323E1,1.1897627E1,1.249331E0,2.0772152E0,1.3921921E2,6.1823086E1,1.034466E1,6.998117E1,1.315652E0,1.3241317E0,6.7473755E0,1.4090552E0,1.8024005E0,1.0084502E1,1.7842014E0,5.7460203E0,5.2289095E0,1.4822663E0,6.96805E0,2.2799153E0,5.157188E0,2.144599E0,2.95174E0,2.3453495E1,4.4143143E0,2.2057679E0,3.5250908E1,1.8472123E0,2.1402695E0,8.636776E0,8.992618E0,1.4449868E0,9.017057E0,2.390748E1,4.7363667E0,5.3748207E0,1.2654427E0,2.4684553E0,2.6667187E1,5.122607E0],"tree_param":{"num_deleted":"0","num_feature":"40","num_nodes":"169","size_leaf_vector":"1"}},{"base_weights":[3.72002E-1,4.3292558E-1,2.6114994E-1,4.4980258E-1,-1.462624E-1,-4.9452E-1,2.7747923E-1,3.294615E-1,5.075047E-1,3.297636E-1,-3.761065E-1,9.37779E-2,-6.199751E-1,2.9405594E-1,-3.5419375E-1,4.158774E-1,8.300206E-2,5.687434E-1,3.6848256E-1,6.2587297E-1,-1.466588E-1,9.374188E-2,-5.95907E-1,-2.0610951E-1,-4.657879E-2,-6.0208734E-2,3.183585E-1,3.77275E-1,-5.479451E-1,5.789954E-1,2.9780275E-1,5.1658034E-1,-4.906332E-2,7.330812E-1,5.087521E-1,1.9758213E-1,5.545605E-1,2.4021588E-1,-3.4012448E-2,-2.5307757E-1,2.1841492E-1,-3.1567567E-3,-1.9574648E-1,1.8085279E-1,-4.0258023E-1,-1.9746406E-1,3.379636E-1,-7.752558E-3,1.7800277E-1,-1.8427134E-1,8.733017E-3,1.4135744E-1,6.7025805E-1,-3.0532703E-1,3.4719548E-1,6.6076535E-1,-2.5808656E-1,-2.1656287E-1,3.4475967E-1,7.695416E-1,1.9520828E-1,5.1903105E-1,-1.7191747E-1,-2.043612E-2,4.7640607E-1,-3.9904624E-1,6.2707704E-1,-1.5412894E-1,1.01532616E-1,4.1757947E-1,-1.9008295E-1,1.918412E-1,-5.5551064E-1,2.7415758E-1,-3.367232E-1,3.54496E-1,-2.4788186E-1,1.1210779E-1,-2.1342333E-1,2.0959078E-1,-1.6812979E-1,8.8883035E-2,-1.9273247E-1,1.2786067E-1,-1.6895464E-2,2.2499432E-1,-1.0731261E-1,-1.8106697E-1,5.7414725E-2,4.561192E-2,-1.3123144E-1,-1.6998115E-1,2.0825921E-1,2.5872996E-1,1.6798617E-1,-1.9124703E-1,1.4829075E-1,2.3113714E-1,1.4363575E-1,2.4800557E-1,-3.1158859E-2,1.5635255E-1,-8.847594E-2,1.0593884E-1,-2.1350856E-1,2.1115147E-1,-1.1841274E-2,-2.0325575E-2,2.3348613E-1,-2.0001368E-1,7.118633E-2,1.6504516E-1,-1.10784285E-1,-4.3066047E-2,-1.8641433E-1,1.1688834E-1,2.5148524E-2,-1.4751318E-1,8.915602E-2],"categories":[3,5,7,9,1,5,0,0,0,2,3,5,6,8,9,0,2,1,2,3,1,2,0,5],"categories_nodes":[8,9,10,14,15,36,51,57,64,74,75],"categories_segments":[0,4,6,7,8,15,16,17,19,20,22],"categories_sizes":[4,2,1,1,7,1,1,2,1,2,2],"default_left":[0,0,0,0,0,0,0,0,1,1,1,0,0,0,1,1,0,0,0,0,0,0,0,0,0,0,0,0,0,0,0,0,0,0,0,0,1,0,0,0,0,0,0,0,0,0,0,0,0,0,0,1,0,0,0,0,0,1,0,0,0,0,0,0,1,0,0,0,0,0,0,0,0,0,1,1,0,0,0,0,0,0,0,0,0,0,0,0,0,0,0,0,0,0,0,0,0,0,0,0,0,0,0,0,0,0,0,0,0,0,0,0,0,0,0,0,0,0,0],"id":6,"left_children":[1,3,5,7,9,11,13,15,17,19,21,-1,23,25,27,29,31,33,35,37,-1,39,41,-1,-1,43,45,47,49,51,53,55,57,59,61,63,65,-1,-1,67,-1,-1,-1,69,71,73,75,-1,-1,-1,-1,77,79,81,83,85,87,89,91,93,95,97,-1,99,101,103,105,-1,-1,107,-1,-1,109,111,113,115,117,-1,-1,-1,-1,-1,-1,-1,-1,-1,-1,-1,-1,-1,-1,-1,-1,-1,-1,-1,-1,-1,-1,-1,-1,-1,-1,-1,-1,-1,-1,-1,-1,-1,-1,-1,-1,-1,-1,-1,-1,-1,-1],"loss_changes":[1.10451355E1,1.0473175E1,7.399143E0,7.0183716E0,3.5049098E0,1.4906437E0,6.142826E0,7.1688766E0,5.729309E0,2.8741279E0,2.2561884E0,0E0,2.4919271E-1,4.86203E0,2.361016E0,4.645809E0,5.1245556E0,4.3831787E0,6.7643757E0,1.1531134E0,0E0,1.8681831E0,4.7841358E-1,0E0,0E0,3.1224935E0,5.39159E0,3.4417474E-1,4.932034E-1,4.0585136E0,4.490506E0,2.5025716E0,4.6377363E0,2.3353806E0,4.2636642E0,6.953435E0,7.3680553E0,0E0,0E0,1.0514042E0,0E0,0E0,0E0,4.578375E0,2.8376708E0,1.4000343E0,5.0045586E0,0E0,0E0,0E0,0E0,4.0719852E0,3.3872452E0,2.5576954E0,4.375866E0,1.8932118E0,7.3590094E-1,4.0677843E0,7.089833E0,1.8213882E0,2.6527479E0,3.211586E0,0E0,4.6839643E0,1.8859711E0,2.1056576E0,4.941887E0,0E0,0E0,3.1930137E0,0E0,0E0,1.4029408E0,1.1071098E0,7.8074837E-1,4.6659126E0,2.0759826E0,0E0,0E0,0E0,0E0,0E0,0E0,0E0,0E0,0E0,0E0,0E0,0E0,0E0,0E0,0E0,0E0,0E0,0E0,0E0,0E0,0E0,0E0,0E0,0E0,0E0,0E0,0E0,0E0,0E0,0E0,0E0,0E0,0E0,0E0,0E0,0E0,0E0,0E0,0E0,0E0,0E0,0E0],"parents":[2147483647,0,0,1,1,2,2,3,3,4,4,5,5,6,6,7,7,8,8,9,9,10,10,12,12,13,13,14,14,15,15,16,16,17,17,18,18,19,19,21,21,22,22,25,25,26,26,27,27,28,28,29,29,30,30,31,31,32,32,33,33,34,34,35,35,36,36,39,39,43,43,44,44,45,45,46,46,51,51,52,52,53,53,54,54,55,55,56,56,57,57,58,58,59,59,60,60,61,61,63,63,64,64,65,65,66,66,69,69,72,72,73,73,74,74,75,75,76,76],"right_children":[2,4,6,8,10,12,14,16,18,20,22,-1,24,26,28,30,32,34,36,38,-1,40,42,-1,-1,44,46,48,50,52,54,56,58,60,62,64,66,-1,-1,68,-1,-1,-1,70,72,74,76,-1,-1,-1,-1,78,80,82,84,86,88,90,92,94,96,98,-1,100,102,104,106,-1,-1,108,-1,-1,110,112,114,116,118,-1,-1,-1,-1,-1,-1,-1,-1,-1,-1,-1,-1,-1,-1,-1,-1,-1,-1,-1,-1,-1,-1,-1,-1,-1,-1,-1,-1,-1,-1,-1,-1,-1,-1,-1,-1,-1,-1,-1,-1,-1,-1],"split_conditions":[6.79E0,2.1E1,1.92E0,1.4508E2,9E2,6.882E1,1.1748E2,6.995E1,1E-45,1E-45,1E-45,9.37779E-2,8.972E1,2.1E2,1E-45,1E-45,1.856E1,4.567E1,3.195E1,1.116E2,-1.466588E-1,1.756E3,2.923E1,-2.0610951E-1,-4.657879E-2,7.78E0,1.3251792E0,1.48E2,4.027E1,3.8E0,2.333E1,3.274E3,6.18E0,1.6742E2,5.185E1,3.95E0,1E-45,2.4021588E-1,-3.4012448E-2,4E0,2.1841492E-1,-3.1567567E-3,-1.9574648E-1,2.954E1,1.872E1,7E0,5.028E1,-7.752558E-3,1.7800277E-1,-1.8427134E-1,8.733017E-3,1E-45,2.1E1,2.312E1,9.109E1,9.812E1,4.9559998E1,1E-45,9.586E1,2.9969E2,3.1E0,2.1E0,-1.7191747E-1,2.196E1,1E-45,1.444E3,1.7E1,-1.5412894E-1,1.01532616E-1,2.432E1,-1.9008295E-1,1.918412E-1,8.51E0,8.13E0,1E-45,1E-45,2.51E3,1.1210779E-1,-2.1342333E-1,2.0959078E-1,-1.6812979E-1,8.8883035E-2,-1.9273247E-1,1.2786067E-1,-1.6895464E-2,2.2499432E-1,-1.0731261E-1,-1.8106697E-1,5.7414725E-2,4.561192E-2,-1.3123144E-1,-1.6998115E-1,2.0825921E-1,2.5872996E-1,1.6798617E-1,-1.9124703E-1,1.4829075E-1,2.3113714E-1,1.4363575E-1,2.4800557E-1,-3.1158859E-2,1.5635255E-1,-8.847594E-2,1.0593884E-1,-2.1350856E-1,2.1115147E-1,-1.1841274E-2,-2.0325575E-2,2.3348613E-1,-2.0001368E-1,7.118633E-2,1.6504516E-1,-1.10784285E-1,-4.3066047E-2,-1.8641433E-1,1.1688834E-1,2.5148524E-2,-1.4751318E-1,8.915602E-2],"split_indices":[17,31,10,20,39,20,9,20,37,37,32,0,9,39,38,37,10,9,16,19,0,39,19,0,0,17,11,7,16,17,23,39,17,19,10,13,38,0,0,14,0,0,0,23,20,29,10,0,0,0,0,28,29,23,9,9,9,28,20,20,14,14,0,23,28,39,31,0,0,23,0,0,17,17,28,37,39,0,0,0,0,0,0,0,0,0,0,0,0,0,0,0,0,0,0,0,0,0,0,0,0,0,0,0,0,0,0,0,0,0,0,0,0,0,0,0,0,0,0],"split_type":[0,0,0,0,0,0,0,0,1,1,1,0,0,0,1,1,0,0,0,0,0,0,0,0,0,0,0,0,0,0,0,0,0,0,0,0,1,0,0,0,0,0,0,0,0,0,0,0,0,0,0,1,0,0,0,0,0,1,0,0,0,0,0,0,1,0,0,0,0,0,0,0,0,0,1,1,0,0,0,0,0,0,0,0,0,0,0,0,0,0,0,0,0,0,0,0,0,0,0,0,0,0,0,0,0,0,0,0,0,0,0,0,0,0,0,0,0,0,0],"sum_hessian":[1.6512079E3,1.0637E3,5.8750793E2,1.0337994E3,2.9900545E1,1.180752E1,5.7570044E2,3.3721918E2,6.9658026E2,9.5946045E0,2.030594E1,1.3877544E0,1.0419765E1,5.614997E2,1.4200705E1,2.4916664E2,8.805255E1,4.8142386E2,2.151564E2,7.218885E0,2.3757193E0,6.654566E0,1.3651375E1,8.687748E0,1.7320174E0,3.595129E1,5.255484E2,2.7754283E0,1.1425277E1,1.0298755E2,1.461791E2,1.9878553E1,6.8173996E1,1.2574449E2,3.5567938E2,1.1322679E2,1.019296E2,5.7708187E0,1.4480662E0,4.6908016E0,1.9637642E0,1.3077273E0,1.2343648E1,2.137386E1,1.4577429E1,1.8911177E1,5.0663724E2,1.2757198E0,1.4997085E0,1.0190184E1,1.2350932E0,1.8210478E1,8.477707E1,1.067281E1,1.3550629E2,1.68832E1,2.9953544E0,4.8146557E1,2.002744E1,1.1735848E2,8.386007E0,3.5284695E2,2.8324018E0,6.406205E1,4.916474E1,6.885194E0,9.504441E1,3.347149E0,1.3436528E0,1.6938046E1,4.435814E0,1.4584255E0,1.3119003E1,4.0902514E0,1.4820926E1,4.9311652E2,1.3520719E1,1.4752873E1,3.457604E0,8.328888E1,1.4881918E0,3.8763456E0,6.7964644E0,1.1327179E2,2.2234499E1,1.576578E1,1.1174194E0,1.4997771E0,1.4955773E0,1.8157118E1,2.998944E1,5.378465E0,1.4648973E1,7.915933E1,3.819915E1,1.9171451E0,6.4688625E0,4.618282E1,3.0666415E2,4.9446445E0,5.91174E1,4.67742E1,2.390541E0,1.9835831E0,4.9016104E0,8.517906E1,9.865352E0,7.5677805E0,9.370265E0,1.1644702E1,1.4743015E0,2.9639115E0,1.1263399E0,9.725484E0,5.0954423E0,4.360758E2,5.704071E1,9.409433E0,4.1112847E0],"tree_param":{"num_deleted":"0","num_feature":"40","num_nodes":"119","size_leaf_vector":"1"}},{"base_weights":[-5.150894E-1,-6.894722E-2,-5.3111106E-1,-1.5055437E-1,5.405983E-1,-5.49098E-1,-4.1936797E-1,-3.9390236E-1,1.1775537E-1,-9.8954506E-2,2.5016123E-1,-5.5853146E-1,-3.413108E-1,-4.3818298E-1,3.785507E-1,1.2657833E-1,-5.159076E-1,6.1296123E-1,-2.1826746E-1,-5.602201E-1,8.3747834E-2,-4.85819E-2,-4.9543065E-1,-2.6897767E-1,-5.1787025E-1,2.799355E-1,-1.1964099E-1,-5.608877E-1,1.8644618E-2,7.981312E-1,-9.628396E-2,-4.5836452E-1,2.0389737E-1,-5.6413066E-1,-3.1787705E-1,-9.866894E-2,1.2528755E-1,-1.917755E-1,4.5285955E-1,-1.2149733E-1,-1.8533505E-1,-5.026735E-1,-7.150607E-2,-5.389544E-1,-2.1115835E-3,-1.841256E-1,-5.377701E-4,5.61703E-2,3.0563053E-1,2.7959388E-2,-1.6895238E-1,2.2997631E-1,-2.2584921E-1,-5.650334E-1,2.536038E-2,2.4216066E-1,-5.1121765E-1,-4.7074154E-1,3.0931607E-1,-1.1169643E-1,2.8057346E-1,1.8061739E-1,-3.968498E-1,-3.0334365E-2,-5.694735E-1,1.8030098E-1,-3.9617532E-1,-1.8158922E-1,-4.820351E-1,-1.3616288E-1,1.654884E-1,-1.1832107E-1,2.223982E-2,-1.0551414E-1,-1.7034662E-1,2.720332E-1,-6.5906145E-2,3.279309E-2,-1.7368507E-1,-1.7096052E-1,4.2443518E-2,1.9510251E-1,-1.1528138E-1,-1.567186E-1,4.051184E-2,-1.23310745E-1,1.3196893E-1,-1.8246317E-1,-1.5684636E-2,1.0648471E-1,-1.5112056E-1,-1.5222183E-1,4.7077592E-2,5.3996384E-2,-1.4890935E-1],"categories":[2,5],"categories_nodes":[39],"categories_segments":[0],"categories_sizes":[2],"default_left":[0,0,0,0,0,0,0,0,0,0,0,0,0,0,0,0,0,0,0,0,0,0,0,0,0,0,0,0,0,0,0,0,0,0,0,0,0,0,0,1,0,0,0,0,0,0,0,0,0,0,0,0,0,0,0,0,0,0,0,0,0,0,0,0,0,0,0,0,0,0,0,0,0,0,0,0,0,0,0,0,0,0,0,0,0,0,0,0,0,0,0,0,0,0,0],"id":7,"left_children":[1,3,5,7,9,11,13,15,17,-1,-1,19,21,23,25,-1,27,29,31,33,35,37,39,41,43,-1,-1,45,-1,47,-1,49,51,53,55,-1,-1,57,59,61,-1,63,65,67,69,-1,-1,-1,-1,-1,-1,-1,71,73,-1,75,77,79,81,-1,-1,-1,83,85,87,89,91,-1,93,-1,-1,-1,-1,-1,-1,-1,-1,-1,-1,-1,-1,-1,-1,-1,-1,-1,-1,-1,-1,-1,-1,-1,-1,-1,-1],"loss_changes":[8.372009E0,2.1671293E0,2.0518494E0,2.5119257E0,1.5945024E0,1.7200928E0,2.5928555E0,2.2115688E0,3.2503772E0,0E0,0E0,1.0565491E0,2.0017915E0,1.9964867E0,2.2088804E0,0E0,4.9964857E-1,1.6108923E0,1.2991948E0,7.006836E-1,5.9352136E-1,1.2785145E0,1.2658224E0,2.4004576E0,1.1581135E0,0E0,0E0,4.9204588E-1,0E0,7.290988E-1,0E0,5.086472E-1,1.3833482E0,5.821228E-1,1.9684993E0,0E0,0E0,2.04843E0,1.9340835E0,1.926478E0,0E0,7.404189E-1,2.5061584E0,9.496117E-2,1.54889E0,0E0,0E0,0E0,0E0,0E0,0E0,0E0,2.1177174E-1,3.4243774E-1,0E0,1.7495363E0,6.090858E-1,6.3535166E-1,1.5440902E0,0E0,0E0,0E0,5.2049017E-1,9.025434E-1,3.8856983E-1,2.264653E0,8.99174E-1,0E0,6.588316E-1,0E0,0E0,0E0,0E0,0E0,0E0,0E0,0E0,0E0,0E0,0E0,0E0,0E0,0E0,0E0,0E0,0E0,0E0,0E0,0E0,0E0,0E0,0E0,0E0,0E0,0E0],"parents":[2147483647,0,0,1,1,2,2,3,3,4,4,5,5,6,6,7,7,8,8,11,11,12,12,13,13,14,14,16,16,17,17,18,18,19,19,20,20,21,21,22,22,23,23,24,24,27,27,29,29,31,31,32,32,33,33,34,34,37,37,38,38,39,39,41,41,42,42,43,43,44,44,52,52,53,53,55,55,56,56,57,57,58,58,62,62,63,63,64,64,65,65,66,66,68,68],"right_children":[2,4,6,8,10,12,14,16,18,-1,-1,20,22,24,26,-1,28,30,32,34,36,38,40,42,44,-1,-1,46,-1,48,-1,50,52,54,56,-1,-1,58,60,62,-1,64,66,68,70,-1,-1,-1,-1,-1,-1,-1,72,74,-1,76,78,80,82,-1,-1,-1,84,86,88,90,92,-1,94,-1,-1,-1,-1,-1,-1,-1,-1,-1,-1,-1,-1,-1,-1,-1,-1,-1,-1,-1,-1,-1,-1,-1,-1,-1,-1],"split_conditions":[1.1970798E0,1.6124E2,7.9917207E0,1.07E0,7E0,6.9E0,4.364E1,2.307E1,1.66E0,-9.8954506E-2,2.5016123E-1,4.785E1,2.5675085E0,3.08E1,2.942E1,1.2657833E-1,1E2,2.3E1,8.2E1,5.76E0,4.626E1,2.1855206E0,8E0,2.544E1,9.09E0,2.799355E-1,-1.1964099E-1,7.75E0,1.8644618E-2,2.8E0,-9.628396E-2,8.02E1,4.69E0,7.6E0,1.47E1,-9.866894E-2,1.2528755E-1,4.728E1,7.14E0,1E-45,-1.8533505E-1,8.66E0,2.956E1,8.7E-1,2.3E0,-1.841256E-1,-5.377701E-4,5.61703E-2,3.0563053E-1,2.7959388E-2,-1.6895238E-1,2.2997631E-1,9.359E1,1.8E1,2.536038E-2,3.756235E0,9.1E-1,3.034E1,6.374E1,-1.1169643E-1,2.8057346E-1,1.8061739E-1,2.7E1,4.85E0,4.23E0,5.07E0,1.4676E2,-1.8158922E-1,8.8E-1,-1.3616288E-1,1.654884E-1,-1.1832107E-1,2.223982E-2,-1.0551414E-1,-1.7034662E-1,2.720332E-1,-6.5906145E-2,3.279309E-2,-1.7368507E-1,-1.7096052E-1,4.2443518E-2,1.9510251E-1,-1.1528138E-1,-1.567186E-1,4.051184E-2,-1.23310745E-1,1.3196893E-1,-1.8246317E-1,-1.5684636E-2,1.0648471E-1,-1.5112056E-1,-1.5222183E-1,4.7077592E-2,5.3996384E-2,-1.4890935E-1],"split_indices":[11,27,11,24,29,5,10,23,24,0,0,4,11,22,23,0,0,31,0,6,10,11,29,4,13,0,0,17,0,14,0,27,5,14,4,0,0,22,5,33,0,10,23,24,6,0,0,0,0,0,0,0,22,0,0,11,5,23,22,0,0,0,31,5,6,5,27,0,24,0,0,0,0,0,0,0,0,0,0,0,0,0,0,0,0,0,0,0,0,0,0,0,0,0,0],"split_type":[0,0,0,0,0,0,0,0,0,0,0,0,0,0,0,0,0,0,0,0,0,0,0,0,0,0,0,0,0,0,0,0,0,0,0,0,0,0,0,1,0,0,0,0,0,0,0,0,0,0,0,0,0,0,0,0,0,0,0,0,0,0,0,0,0,0,0,0,0,0,0,0,0,0,0,0,0,0,0,0,0,0,0,0,0,0,0,0,0,0,0,0,0,0,0],"sum_hessian":[1.1753721E3,4.0930088E1,1.134442E3,3.6761402E1,4.1686845E0,9.7378174E2,1.6066023E2,1.9031961E1,1.7729443E1,1.0191331E0,3.1495514E0,9.2987775E2,4.390403E1,1.5739958E2,3.2606583E0,2.1561105E0,1.687585E1,6.83393E0,1.0895512E1,9.275667E2,2.3110065E0,1.5596293E1,2.8307737E1,5.1795055E1,1.0560452E2,1.7860823E0,1.474576E0,1.5685056E1,1.190795E0,5.824472E0,1.0094585E0,6.890782E0,4.0047297E0,9.1153E2,1.6036718E1,1.0402559E0,1.2707505E0,1.2612243E1,2.9840503E0,7.470252E0,2.0837486E1,2.3013914E1,2.8781143E1,1.01413765E2,4.1907554E0,1.4240783E1,1.4442729E0,2.035956E0,3.7885158E0,1.1180162E0,5.7727656E0,1.3947264E0,2.6100035E0,9.10392E2,1.137986E0,4.0507255E0,1.1985992E1,8.14073E0,4.4715123E0,1.1850457E0,1.7990047E0,1.7321389E0,5.738113E0,3.0316176E0,1.9982296E1,1.6459862E1,1.23212805E1,4.2381344E1,5.9032425E1,2.4072006E0,1.7835547E0,1.4695389E0,1.1404647E0,1.3388149E1,8.9700385E2,1.2658092E0,2.7849164E0,1.1191466E0,1.0866846E1,7.065849E0,1.0748814E0,3.0394266E0,1.4320859E0,4.6567883E0,1.0813246E0,1.7448567E0,1.2867608E0,1.8426208E1,1.5560883E0,1.3495332E1,2.9645307E0,1.0327079E1,1.9942012E0,1.0057478E0,5.8026676E1],"tree_param":{"num_deleted":"0","num_feature":"40","num_nodes":"95","size_leaf_vector":"1"}},{"base_weights":[-6.033284E-3,-7.53046E-2,1.0842364E-1,-9.801152E-2,5.031374E-1,2.8030622E-1,6.214627E-2,-2.836788E-1,-5.4835644E-2,6.5009373E-1,-1.4477524E-1,4.0430766E-1,-1.2452955E-1,3.0871632E-2,3.4426978E-1,1.964173E-1,-3.300748E-1,7.6069914E-2,-1.3337778E-1,2.0763394E-1,8.115946E-1,4.11981E-1,-1.7205642E-1,1.816533E-2,5.1449883E-1,4.559633E-1,-3.7775773E-1,4.158771E-1,4.9772803E-3,6.182924E-1,1.0376844E-1,5.767025E-1,-1.7173606E-1,-4.0140983E-1,6.280641E-2,2.0002848E-1,-1.7816548E-1,-1.92892E-1,9.819764E-2,6.5904045E-1,-2.6649836E-1,8.679017E-1,4.552687E-2,-7.4974087E-4,1.8736857E-1,7.43452E-1,-1.8952006E-1,6.4463496E-1,6.7650296E-2,6.587495E-1,-1.2370991E-1,-5.2956444E-1,4.0020743E-1,-2.9082802E-1,6.3145036E-1,-4.4190484E-1,3.8401093E-2,3.9996956E-2,8.305609E-1,-2.1565953E-1,4.365444E-1,7.927632E-1,-1.2362626E-1,2.2774625E-1,-4.3942583E-1,4.38314E-1,-2.2220045E-1,3.9340797E-1,-1.4691611E-2,5.2492106E-1,-2.2321996E-1,3.4072972E-3,-2.6547176E-1,-4.3993306E-1,1.6710623E-1,2.2774337E-1,7.191134E-2,-1.6493371E-1,8.316643E-2,2.9943988E-1,5.2499396E-1,7.991448E-2,2.5705686E-1,1.790669E-1,-3.5541832E-1,9.5397913E-1,4.4375452E-1,-2.2105435E-1,2.7750552E-1,3.1236452E-1,3.1085363E-1,-6.343505E-1,1.1794237E-1,1.9382785E-1,-1.0397739E-2,1.438385E-1,-1.7224519E-1,-5.8696937E-2,8.349716E-1,-2.0331912E-1,8.050739E-2,3.417491E-1,-1.3936413E-2,-3.4512004E-1,1.7862839E-1,-3.6119593E-3,2.7341318E-1,1.796316E-1,-4.1646332E-1,2.2996579E-1,-3.3963278E-1,-1.050506E-1,2.997238E-1,2.6694918E-1,-1.1766449E-1,-1.4450559E-1,3.753862E-2,-4.360782E-2,2.217776E-1,1.5430456E-1,-1.5890923E-1,1.7506761E-3,1.6162202E-1,-2.6359467E-2,1.7101537E-1,2.6076865E-1,-1.1495383E-1,-9.10155E-2,6.0132038E-2,1.3139904E-1,-3.240392E-2,-9.134391E-2,2.5483765E-2,4.4820663E-2,-1.8145631E-1,-7.2918558E-3,1.1290497E-1,2.3456413E-1,-1.1720542E-1,5.470002E-2,-1.483569E-1,3.2191443E-1,-4.5114744E-2,2.5991008E-1,7.6919064E-2,9.035172E-2,-1.1263859E-1,-1.2017102E-1,1.8798117E-1,-1.3145418E-2,-2.059868E-1,-1.4174016E-1,1.0560015E-1,2.9840422E-1,-5.5788856E-2,2.4745204E-1,-9.7082876E-2,1.2139018E-1,-1.5569113E-1,-7.311848E-2,1.2901528E-2,2.2147282E-3,-1.4727171E-1,-1.6699967E-1,8.892749E-2,-1.429397E-1,-4.2933098E-4],"categories":[0,1,2,3,4,7,8,9,0,2,0,1,2,3,4,6,8,9,0,3,4,0,1,3,4,0,1,2,3,4,5,7,7,0,1,2,7,2],"categories_nodes":[2,3,5,8,17,56,63,69,73,80,98],"categories_segments":[0,8,9,10,18,21,25,32,33,36,37],"categories_sizes":[8,1,1,8,3,4,7,1,3,1,1],"default_left":[0,0,1,1,0,1,0,0,1,0,0,0,0,0,0,0,0,1,0,0,0,0,0,0,0,0,0,0,0,0,0,0,0,0,0,0,0,0,0,0,0,0,0,0,0,0,0,0,0,0,0,0,0,0,0,0,1,0,0,0,0,0,0,1,0,0,0,0,0,1,0,0,0,1,0,0,0,0,0,0,1,0,0,0,0,0,0,0,0,0,0,0,0,0,0,0,0,0,1,0,0,0,0,0,0,0,0,0,0,0,0,0,0,0,0,0,0,0,0,0,0,0,0,0,0,0,0,0,0,0,0,0,0,0,0,0,0,0,0,0,0,0,0,0,0,0,0,0,0,0,0,0,0,0,0,0,0,0,0,0,0,0,0,0,0,0,0],"id":8,"left_children":[1,3,5,7,9,11,13,15,17,19,21,23,25,27,29,31,33,35,37,39,41,43,-1,45,47,49,51,53,55,57,59,61,-1,63,65,67,69,71,73,75,77,79,-1,-1,-1,81,83,85,87,89,-1,91,93,95,97,99,101,103,105,107,109,111,-1,113,115,117,119,121,123,125,127,129,131,133,135,-1,-1,-1,-1,-1,137,-1,-1,-1,139,141,143,145,-1,147,-1,149,-1,-1,-1,-1,-1,151,153,-1,155,157,159,161,-1,-1,-1,-1,163,-1,165,-1,-1,-1,-1,-1,-1,-1,-1,-1,-1,-1,-1,-1,-1,-1,-1,-1,-1,-1,-1,-1,-1,-1,-1,-1,-1,-1,-1,-1,-1,-1,-1,-1,-1,-1,-1,-1,-1,-1,-1,-1,-1,-1,-1,-1,-1,-1,-1,-1,-1,-1,-1,-1,-1,-1,-1],"loss_changes":[1.1425247E1,1.1839739E1,4.304387E0,6.915291E0,3.3380795E0,5.8218584E0,3.7777634E0,3.6929665E0,7.235095E0,1.8289518E0,1.9350982E0,3.745531E0,4.247384E0,3.8622277E0,2.7530785E0,4.7103195E0,4.198366E0,8.360209E0,6.0769343E0,2.0630345E0,6.163645E-1,3.2564247E-1,0E0,3.2481842E0,3.9466515E0,1.8341122E0,2.556137E0,3.903151E0,5.4568233E0,2.3948488E0,2.6419356E0,2.5744429E0,0E0,3.1174717E0,2.6387565E0,7.3985047E0,2.876499E0,4.9878445E0,3.430592E0,1.9750357E-2,9.245495E-1,2.9498386E-1,0E0,0E0,0E0,3.1175375E-2,2.408279E0,2.8717003E0,4.3119035E0,6.6710377E-1,0E0,1.8968167E0,4.2982996E-1,1.6701379E0,2.7210298E0,3.1867542E0,5.399186E0,1.566271E0,9.928074E-1,2.3588486E0,3.3519099E0,2.4665704E0,0E0,3.5699766E0,2.9067135E0,1.9663405E0,3.4802794E0,5.27534E0,3.7011342E0,2.0665402E0,2.864892E0,4.670235E0,3.5190544E0,1.1159616E0,3.2525263E0,0E0,0E0,0E0,0E0,0E0,1.9891101E0,0E0,0E0,0E0,1.1768849E0,2.7921562E0,2.4714174E0,1.1791555E0,0E0,1.4570259E0,0E0,4.540472E-1,0E0,0E0,0E0,0E0,0E0,1.0612929E0,2.5910978E0,0E0,2.9142892E0,2.9182215E0,3.814713E0,2.2921622E-1,0E0,0E0,0E0,0E0,1.2581797E0,0E0,1.9801769E-1,0E0,0E0,0E0,0E0,0E0,0E0,0E0,0E0,0E0,0E0,0E0,0E0,0E0,0E0,0E0,0E0,0E0,0E0,0E0,0E0,0E0,0E0,0E0,0E0,0E0,0E0,0E0,0E0,0E0,0E0,0E0,0E0,0E0,0E0,0E0,0E0,0E0,0E0,0E0,0E0,0E0,0E0,0E0,0E0,0E0,0E0,0E0,0E0,0E0,0E0,0E0,0E0,0E0,0E0,0E0,0E0],"parents":[2147483647,0,0,1,1,2,2,3,3,4,4,5,5,6,6,7,7,8,8,9,9,10,10,11,11,12,12,13,13,14,14,15,15,16,16,17,17,18,18,19,19,20,20,21,21,23,23,24,24,25,25,26,26,27,27,28,28,29,29,30,30,31,31,33,33,34,34,35,35,36,36,37,37,38,38,39,39,40,40,41,41,45,45,46,46,47,47,48,48,49,49,51,51,52,52,53,53,54,54,55,55,56,56,57,57,58,58,59,59,60,60,61,61,63,63,64,64,65,65,66,66,67,67,68,68,69,69,70,70,71,71,72,72,73,73,74,74,80,80,84,84,85,85,86,86,87,87,89,89,91,91,97,97,98,98,100,100,101,101,102,102,103,103,108,108,110,110],"right_children":[2,4,6,8,10,12,14,16,18,20,22,24,26,28,30,32,34,36,38,40,42,44,-1,46,48,50,52,54,56,58,60,62,-1,64,66,68,70,72,74,76,78,80,-1,-1,-1,82,84,86,88,90,-1,92,94,96,98,100,102,104,106,108,110,112,-1,114,116,118,120,122,124,126,128,130,132,134,136,-1,-1,-1,-1,-1,138,-1,-1,-1,140,142,144,146,-1,148,-1,150,-1,-1,-1,-1,-1,152,154,-1,156,158,160,162,-1,-1,-1,-1,164,-1,166,-1,-1,-1,-1,-1,-1,-1,-1,-1,-1,-1,-1,-1,-1,-1,-1,-1,-1,-1,-1,-1,-1,-1,-1,-1,-1,-1,-1,-1,-1,-1,-1,-1,-1,-1,-1,-1,-1,-1,-1,-1,-1,-1,-1,-1,-1,-1,-1,-1,-1,-1,-1,-1,-1,-1,-1],"split_conditions":[6.79E0,2.1E1,1E-45,1E-45,6.51E0,1E-45,2.6E1,3.5E-1,1E-45,4.0121813E0,8E0,4.926E1,3.03E0,1.941E1,3.4E0,2.4E0,5.86E0,1E-45,4.12E0,4.18E0,3.1272E2,7.2E1,-1.7205642E-1,2.25E0,1.485E2,2.9278E2,3.3102E2,1.12E0,3.288E1,2.8E0,2.96E0,7.6E1,-1.7173606E-1,1.402E1,2.5386E2,5.88E0,-1.3E1,3E0,-7E0,2.681E1,1.0715E2,4.69E0,4.552687E-2,-7.4974087E-4,1.8736857E-1,1.29E0,7.3E-1,1.1956E2,5.4E0,2.7727E2,-1.2370991E-1,2.1E1,5.85E0,4.35E0,1.41E0,5.11E0,1E-45,3.309E1,1.317E1,1.0068763E0,7.009315E0,1.25E0,-1.2362626E-1,1E-45,7.9E0,7.624E1,6.927E1,3.685919E0,1.5E1,1E-45,1.5E1,1.9732E2,1.5E1,1E-45,1.2996E2,2.2774337E-1,7.191134E-2,-1.6493371E-1,8.316643E-2,2.9943988E-1,1E-45,7.991448E-2,2.5705686E-1,1.790669E-1,8.14E0,6E0,1.246E1,7.2E1,2.7750552E-1,1.952E1,3.1085363E-1,5.7E-1,1.1794237E-1,1.9382785E-1,-1.0397739E-2,1.438385E-1,-1.7224519E-1,5.24E0,1E-45,-2.0331912E-1,3.9466567E0,4E1,7E0,1.927E1,1.7862839E-1,-3.6119593E-3,2.7341318E-1,1.796316E-1,3.2258E2,2.2996579E-1,5.43E0,-1.050506E-1,2.997238E-1,2.6694918E-1,-1.1766449E-1,-1.4450559E-1,3.753862E-2,-4.360782E-2,2.217776E-1,1.5430456E-1,-1.5890923E-1,1.7506761E-3,1.6162202E-1,-2.6359467E-2,1.7101537E-1,2.6076865E-1,-1.1495383E-1,-9.10155E-2,6.0132038E-2,1.3139904E-1,-3.240392E-2,-9.134391E-2,2.5483765E-2,4.4820663E-2,-1.8145631E-1,-7.2918558E-3,1.1290497E-1,2.3456413E-1,-1.1720542E-1,5.470002E-2,-1.483569E-1,3.2191443E-1,-4.5114744E-2,2.5991008E-1,7.6919064E-2,9.035172E-2,-1.1263859E-1,-1.2017102E-1,1.8798117E-1,-1.3145418E-2,-2.059868E-1,-1.4174016E-1,1.0560015E-1,2.9840422E-1,-5.5788856E-2,2.4745204E-1,-9.7082876E-2,1.2139018E-1,-1.5569113E-1,-7.311848E-2,1.2901528E-2,2.2147282E-3,-1.4727171E-1,-1.6699967E-1,8.892749E-2,-1.429397E-1,-4.2933098E-4],"split_indices":[17,31,37,32,17,35,31,34,37,11,29,26,34,19,14,14,18,35,13,5,8,1,0,5,19,8,26,18,19,14,13,1,0,26,8,17,30,18,30,16,19,34,0,0,0,5,13,26,14,8,0,30,5,34,13,34,35,16,26,11,11,5,0,37,34,26,19,11,29,37,30,8,29,35,26,0,0,0,0,0,37,0,0,0,26,18,16,1,0,16,0,13,0,0,0,0,0,5,35,0,11,16,29,16,0,0,0,0,26,0,34,0,0,0,0,0,0,0,0,0,0,0,0,0,0,0,0,0,0,0,0,0,0,0,0,0,0,0,0,0,0,0,0,0,0,0,0,0,0,0,0,0,0,0,0,0,0,0,0,0,0,0,0,0,0,0,0],"split_type":[0,0,1,1,0,1,0,0,1,0,0,0,0,0,0,0,0,1,0,0,0,0,0,0,0,0,0,0,0,0,0,0,0,0,0,0,0,0,0,0,0,0,0,0,0,0,0,0,0,0,0,0,0,0,0,0,1,0,0,0,0,0,0,1,0,0,0,0,0,1,0,0,0,1,0,0,0,0,0,0,1,0,0,0,0,0,0,0,0,0,0,0,0,0,0,0,0,0,1,0,0,0,0,0,0,0,0,0,0,0,0,0,0,0,0,0,0,0,0,0,0,0,0,0,0,0,0,0,0,0,0,0,0,0,0,0,0,0,0,0,0,0,0,0,0,0,0,0,0,0,0,0,0,0,0,0,0,0,0,0,0,0,0,0,0,0,0],"sum_hessian":[1.4389905E3,8.96659E2,5.423315E2,8.635891E2,3.306991E1,1.1396982E2,4.2836166E2,1.6188257E2,7.0170654E2,2.6953157E1,6.116749E0,8.724724E1,2.672258E1,3.866133E2,4.1748363E1,1.3980611E1,1.4790195E2,2.6314923E2,4.385573E2,7.8185434E0,1.9134615E1,2.678124E0,3.4386249E0,1.9628397E1,6.7618835E1,7.873347E0,1.8849234E1,2.3414753E1,3.6319855E2,1.8779974E1,2.296839E1,9.521294E0,4.459317E0,1.2515583E2,2.274612E1,1.770416E2,8.610765E1,3.4902573E2,8.953158E1,3.8054762E0,4.0130672E0,1.7339619E1,1.7949955E0,1.2429408E0,1.435183E0,3.7951455E0,1.5833251E1,5.2024937E1,1.5593901E1,6.5784116E0,1.2949352E0,1.6038824E1,2.8104095E0,5.391365E0,1.8023388E1,2.4424017E1,3.3877454E2,5.3615675E0,1.34184065E1,1.1898801E1,1.106959E1,7.976579E0,1.5447146E0,6.847099E0,1.1830873E2,9.582672E0,1.3163448E1,9.271193E1,8.432966E1,4.5441556E0,8.15635E1,9.4471375E1,2.5455435E2,9.552051E0,7.997953E1,2.4179199E0,1.3875563E0,2.631105E0,1.3819624E0,1.1182053E1,6.1575665E0,1.3720676E0,2.4230778E0,2.3056803E0,1.3527571E1,1.9006716E1,3.3018223E1,1.2220888E1,3.3730128E0,4.3832774E0,2.1951344E0,1.4683786E1,1.3550375E0,1.485015E0,1.3253945E0,1.2636117E0,4.1277533E0,4.266647E0,1.3756742E1,1.6622868E1,7.801149E0,4.903546E1,2.8973907E2,3.3898237E0,1.971744E0,1.2488434E0,1.2169563E1,1.9614722E0,9.937328E0,7.7759004E0,3.2936897E0,1.1130972E0,6.863482E0,3.100566E0,3.7465332E0,1.1020609E2,8.102639E0,3.4358778E0,6.146795E0,3.678831E0,9.484617E0,2.5567781E1,6.714414E1,7.5705765E1,8.623896E0,3.3259294E0,1.2182261E0,6.8824425E1,1.2739075E1,1.8679989E1,7.579138E1,2.2917415E2,2.5380207E1,2.1091704E0,7.4428806E0,4.2231102E1,3.774843E1,4.92267E0,1.2348968E0,2.7162616E0,1.0811309E1,1.7182503E1,1.8242124E0,9.028653E0,2.3989569E1,2.571896E0,9.648992E0,1.2569125E0,3.126365E0,1.3435546E0,1.3340232E1,2.0504518E0,2.216195E0,1.1918064E1,1.8386778E0,2.3787315E0,5.422417E0,4.619063E1,2.844833E0,5.6886974E1,2.3285211E2,1.2695284E0,2.1202953E0,8.487291E0,1.4500371E0,2.0538871E0,1.2398026E0],"tree_param":{"num_deleted":"0","num_feature":"40","num_nodes":"167","size_leaf_vector":"1"}},{"base_weights":[2.8760982E-1,3.1050572E-1,5.8173098E-2,3.7571377E-1,2.475396E-1,-3.5020238E-1,1.15748525E-1,5.8009267E-1,3.4335363E-1,1.9475853E-1,3.6935595E-1,1.16084136E-1,-4.271164E-1,2.6191512E-1,-6.567215E-3,6.096204E-1,-2.7518606E-1,1.3328168E-1,3.7148425E-1,1.375835E-1,4.227969E-1,-4.5488507E-1,4.0347502E-1,-5.122648E-1,6.1546307E-2,3.416145E-1,-2.4210533E-1,2.5052646E-1,-1.2634882E-1,6.773147E-2,6.6051525E-1,-1.9141492E-1,6.1371755E-2,4.2216685E-1,-5.1154673E-2,3.7940127E-1,-3.0696583E-1,-2.486721E-1,1.667894E-1,-1.7194246E-1,4.5085618E-1,-2.3517415E-1,1.08149655E-1,-3.5696012E-1,4.2372617E-1,-3.2669798E-2,-1.8484072E-1,-3.8954788E-1,3.938046E-1,-4.7170308E-1,1.5946883E-1,3.7368315E-1,-2.9072943E-1,2.0102637E-1,-2.7842933E-1,-6.472828E-1,2.136003E-1,-4.300886E-2,6.859002E-1,5.5654263E-1,-1.9035088E-1,3.0525088E-1,-2.4795593E-1,3.962914E-1,3.1781327E-2,1.6776845E-1,-6.4637583E-1,-3.2613613E-2,-6.607015E-1,2.039014E-1,-1.5610307E-1,-3.7920853E-1,4.8787466E-1,-1.7328049E-1,2.8705118E-2,4.3857077E-1,-1.6803396E-1,-1.241808E-1,1.1854518E-1,-1.6536465E-2,-1.5406325E-1,4.3007797E-1,-1.2711573E-1,-1.7193875E-1,1.3482059E-2,-1.2670654E-1,4.6678928E-1,4.6806604E-2,-1.7119126E-1,-1.0454285E-1,6.1371833E-1,-5.072744E-1,-7.112533E-2,-2.3144375E-1,-6.297535E-2,-1.7526506E-1,1.5715866E-1,2.1362199E-1,3.4259655E-2,-6.8959543E-3,1.88154E-1,-6.4957865E-2,1.7866376E-1,1.7247182E-1,-1.0087268E-1,-4.0582013E-3,1.2331718E-1,-1.8062705E-1,6.017587E-2,-2.2717483E-1,-6.356378E-2,1.00075446E-1,-7.195142E-2,-2.4232413E-1,-7.91069E-3,6.4476006E-2,-2.1580932E-1,1.3532521E-1,-9.841613E-2,6.7038275E-2,-2.102439E-1,1.6083014E-1,-6.5279506E-2,3.844908E-2,1.4549379E-1,1.4382032E-1,-4.708793E-2,1.7550376E-1,-2.8854774E-2,-1.7809904E-1,5.7301722E-2,2.2900014E-1,-1.5261988E-2,9.157796E-2,-1.8199356E-1,6.920326E-2,-1.02437615E-1],"categories":[1,5,7,8,0,1,2,3,4,6,7,0,2,3,4,6,7,9,1,2],"categories_nodes":[1,5,6,34],"categories_segments":[0,4,11,18],"categories_sizes":[4,7,7,2],"default_left":[0,1,0,0,0,1,1,0,1,0,0,0,0,0,0,0,0,0,0,0,0,0,0,0,0,0,0,0,0,0,0,0,0,0,1,0,0,0,0,0,0,0,0,0,0,0,0,0,0,0,0,0,0,0,0,0,0,0,0,0,0,0,0,0,0,0,0,0,0,0,0,0,0,0,0,0,0,0,0,0,0,0,0,0,0,0,0,0,0,0,0,0,0,0,0,0,0,0,0,0,0,0,0,0,0,0,0,0,0,0,0,0,0,0,0,0,0,0,0,0,0,0,0,0,0,0,0,0,0,0,0,0,0,0,0,0,0],"id":9,"left_children":[1,3,5,7,9,11,13,15,17,19,21,-1,23,25,27,29,31,33,35,37,39,41,43,45,-1,47,49,51,53,55,57,-1,-1,59,61,63,65,67,69,-1,71,-1,-1,73,75,77,-1,79,81,83,-1,85,87,89,91,93,-1,95,97,99,-1,101,103,105,107,-1,109,111,113,115,117,119,121,-1,-1,123,-1,-1,-1,-1,-1,125,-1,-1,-1,-1,127,-1,-1,129,131,133,135,-1,-1,-1,-1,-1,-1,-1,-1,-1,-1,-1,-1,-1,-1,-1,-1,-1,-1,-1,-1,-1,-1,-1,-1,-1,-1,-1,-1,-1,-1,-1,-1,-1,-1,-1,-1,-1,-1,-1,-1,-1,-1,-1,-1],"loss_changes":[8.545959E0,5.9923553E0,3.5475373E0,4.6034546E0,4.794922E0,1.2243099E0,2.352321E0,2.6378708E0,3.6696014E0,6.855095E0,6.587284E0,0E0,1.0412829E0,2.4898148E0,2.265953E0,2.5713387E0,8.1870544E-1,4.0647097E0,3.0946808E0,4.840667E0,3.2153187E0,2.8370318E0,3.5266953E0,7.5757074E-1,0E0,2.1436443E0,1.8080304E0,1.668127E0,2.55325E0,4.72584E0,1.5760422E0,0E0,0E0,4.5669785E0,3.3867693E0,3.2079544E0,2.4042518E0,2.6765213E0,4.778572E0,0E0,3.364437E0,0E0,0E0,6.7732674E-1,3.3704834E0,7.891408E-1,0E0,1.3663226E-1,1.6405845E0,4.0778387E-1,0E0,1.6421132E0,7.0164174E-1,2.1437497E0,1.6085896E0,1.0487151E-1,0E0,1.5199916E0,1.1702156E0,1.114028E0,0E0,2.740521E0,2.442795E0,3.1704865E0,2.9566765E0,0E0,1.0239577E-1,1.6685873E0,9.4632053E-1,3.7733421E0,4.470516E0,1.1218657E0,3.5015335E0,0E0,0E0,2.9823265E0,0E0,0E0,0E0,0E0,0E0,1.4530544E0,0E0,0E0,0E0,0E0,1.2495863E0,0E0,0E0,1.6066275E0,7.508962E-1,1.5024796E0,1.6577446E0,0E0,0E0,0E0,0E0,0E0,0E0,0E0,0E0,0E0,0E0,0E0,0E0,0E0,0E0,0E0,0E0,0E0,0E0,0E0,0E0,0E0,0E0,0E0,0E0,0E0,0E0,0E0,0E0,0E0,0E0,0E0,0E0,0E0,0E0,0E0,0E0,0E0,0E0,0E0,0E0,0E0,0E0,0E0,0E0],"parents":[2147483647,0,0,1,1,2,2,3,3,4,4,5,5,6,6,7,7,8,8,9,9,10,10,12,12,13,13,14,14,15,15,16,16,17,17,18,18,19,19,20,20,21,21,22,22,23,23,25,25,26,26,27,27,28,28,29,29,30,30,33,33,34,34,35,35,36,36,37,37,38,38,40,40,43,43,44,44,45,45,47,47,48,48,49,49,51,51,52,52,53,53,54,54,55,55,57,57,58,58,59,59,61,61,62,62,63,63,64,64,66,66,67,67,68,68,69,69,70,70,71,71,72,72,75,75,81,81,86,86,89,89,90,90,91,91,92,92],"right_children":[2,4,6,8,10,12,14,16,18,20,22,-1,24,26,28,30,32,34,36,38,40,42,44,46,-1,48,50,52,54,56,58,-1,-1,60,62,64,66,68,70,-1,72,-1,-1,74,76,78,-1,80,82,84,-1,86,88,90,92,94,-1,96,98,100,-1,102,104,106,108,-1,110,112,114,116,118,120,122,-1,-1,124,-1,-1,-1,-1,-1,126,-1,-1,-1,-1,128,-1,-1,130,132,134,136,-1,-1,-1,-1,-1,-1,-1,-1,-1,-1,-1,-1,-1,-1,-1,-1,-1,-1,-1,-1,-1,-1,-1,-1,-1,-1,-1,-1,-1,-1,-1,-1,-1,-1,-1,-1,-1,-1,-1,-1,-1,-1,-1,-1],"split_conditions":[1.5670775E1,1E-45,3.09317E0,4.095E1,1.7366E2,1E-45,1E-45,1.6952E2,3.62E2,2.818E3,1.31E0,1.16084136E-1,1.4593E2,2.1011332E1,6.421E1,2.125E1,9.5E-1,1.39E0,7.28E0,8.111E1,7.29E0,2.68E0,1.0068763E0,3.596E1,6.1546307E-2,1.5941592E1,4.73E0,1.5E1,1.4E1,9.332E1,6.18E0,-1.9141492E-1,6.1371755E-2,4.5E0,1E-45,1.0445E2,5.2E1,9E0,1.5539E2,-1.7194246E-1,3.612E1,-2.3517415E-1,1.08149655E-1,6.9E-1,6.23E0,2.2E1,-1.8484072E-1,7.2E1,1.0332E2,3E1,1.5946883E-1,5E0,5.201048E0,7.372557E0,1.2472E2,6.208776E0,2.136003E-1,-6E0,2.2E1,3.6004028E0,-1.9035088E-1,1.17E2,-7E0,9.11E0,7.2E1,1.6776845E-1,5.729E1,6.761E1,5.553E1,2.786E3,-1E1,2.4E0,1.6304E2,-1.7328049E-1,2.8705118E-2,7.5E-1,-1.6803396E-1,-1.241808E-1,1.1854518E-1,-1.6536465E-2,-1.5406325E-1,4.1E0,-1.2711573E-1,-1.7193875E-1,1.3482059E-2,-1.2670654E-1,4.22E0,4.6806604E-2,-1.7119126E-1,4.655E1,7.913646E0,1.08E0,1.351E2,-2.3144375E-1,-6.297535E-2,-1.7526506E-1,1.5715866E-1,2.1362199E-1,3.4259655E-2,-6.8959543E-3,1.88154E-1,-6.4957865E-2,1.7866376E-1,1.7247182E-1,-1.0087268E-1,-4.0582013E-3,1.2331718E-1,-1.8062705E-1,6.017587E-2,-2.2717483E-1,-6.356378E-2,1.00075446E-1,-7.195142E-2,-2.4232413E-1,-7.91069E-3,6.4476006E-2,-2.1580932E-1,1.3532521E-1,-9.841613E-2,6.7038275E-2,-2.102439E-1,1.6083014E-1,-6.5279506E-2,3.844908E-2,1.4549379E-1,1.4382032E-1,-4.708793E-2,1.7550376E-1,-2.8854774E-2,-1.7809904E-1,5.7301722E-2,2.2900014E-1,-1.5261988E-2,9.157796E-2,-1.8199356E-1,6.920326E-2,-1.02437615E-1],"split_indices":[12,37,11,15,26,37,37,19,39,39,18,0,19,12,26,3,25,25,18,27,19,13,11,19,0,12,18,30,31,19,26,0,0,14,28,15,19,30,26,0,15,0,0,13,18,31,0,1,3,31,0,36,11,11,27,11,0,30,30,12,0,27,30,26,1,0,3,27,3,39,30,14,26,0,0,25,0,0,0,0,0,14,0,0,0,0,18,0,0,3,11,13,27,0,0,0,0,0,0,0,0,0,0,0,0,0,0,0,0,0,0,0,0,0,0,0,0,0,0,0,0,0,0,0,0,0,0,0,0,0,0,0,0,0,0,0,0],"split_type":[0,1,0,0,0,1,1,0,0,0,0,0,0,0,0,0,0,0,0,0,0,0,0,0,0,0,0,0,0,0,0,0,0,0,1,0,0,0,0,0,0,0,0,0,0,0,0,0,0,0,0,0,0,0,0,0,0,0,0,0,0,0,0,0,0,0,0,0,0,0,0,0,0,0,0,0,0,0,0,0,0,0,0,0,0,0,0,0,0,0,0,0,0,0,0,0,0,0,0,0,0,0,0,0,0,0,0,0,0,0,0,0,0,0,0,0,0,0,0,0,0,0,0,0,0,0,0,0,0,0,0,0,0,0,0,0,0],"sum_hessian":[1.6292609E3,1.4811053E3,1.4815546E2,7.251595E2,7.559459E2,1.7678873E1,1.3047658E2,9.680926E1,6.283502E2,5.292355E2,2.2671045E2,1.2894821E0,1.638939E1,5.8922836E1,7.155375E1,9.3856186E1,2.9530706E0,7.488294E1,5.534673E2,4.244247E2,1.0481076E2,8.521345E0,2.181891E2,1.4611457E1,1.7779346E0,5.115591E1,7.766926E0,2.2394884E1,4.9158863E1,8.258362E0,8.5597824E1,1.4935161E0,1.4595547E0,2.8676926E1,4.620602E1,5.475189E2,5.9483533E0,2.9307737E1,3.9511697E2,2.3396852E0,1.0247108E2,6.098882E0,2.422463E0,5.2285695E0,2.1296054E2,2.835206E0,1.1776251E1,2.977553E0,4.817836E1,6.2904444E0,1.4764817E0,1.8495941E1,3.8989441E0,1.5490814E1,3.366805E1,3.9120584E0,4.346304E0,2.9568508E0,8.2640976E1,2.5861452E1,2.815473E0,1.6241581E1,2.9964437E1,5.2201526E2,2.5503641E1,1.4922915E0,4.456062E0,1.9933983E1,9.373755E0,3.5471585E2,4.040114E1,3.980166E0,9.849091E1,3.3295276E0,1.8990417E0,2.1034105E2,2.6194942E0,1.5163314E0,1.3188746E0,1.1961086E0,1.7814443E0,4.6585304E1,1.593055E0,5.1667824E0,1.1236616E0,1.5664907E0,1.692945E1,1.6723543E0,2.2265897E0,9.329592E0,6.161222E0,1.5314836E1,1.8353212E1,2.4518838E0,1.4601746E0,1.4970118E0,1.459839E0,7.878843E1,3.8525455E0,2.8830085E0,2.2978443E1,5.896789E0,1.0344791E1,2.3693507E0,2.7595087E1,1.8157146E1,5.0385812E2,4.823681E0,2.067996E1,2.9583406E0,1.4977213E0,6.983412E0,1.2950571E1,7.3877983E0,1.985957E0,3.5129062E2,3.425222E0,8.558012E0,3.1843126E1,1.4910973E0,2.4890687E0,9.241365E1,6.0772643E0,2.7846844E1,1.824942E2,4.3143715E1,3.4415894E0,1.3958943E1,2.9705064E0,3.1341016E0,6.1954904E0,4.907787E0,1.2534353E0,1.4430871E0,1.3871748E1,8.741174E0,9.61204E0],"tree_param":{"num_deleted":"0","num_feature":"40","num_nodes":"137","size_leaf_vector":"1"}},{"base_weights":[-4.6951434E-1,-1.6162522E-1,-5.1747584E-1,-4.6717235E-1,1.2537062E-1,-5.999055E-2,-5.35276E-1,-5.0308156E-1,3.2489783E-1,3.8070184E-1,-3.3262148E-1,1.0127496E-1,-1.6629595E-1,-5.462105E-1,-3.193853E-1,7.686077E-2,-5.26452E-1,2.3461714E-1,-9.832466E-2,-3.9975455E-1,4.9471143E-1,4.739809E-2,-1.7694162E-1,-3.6964953E-1,3.1316784E-1,-5.1596844E-1,-5.864209E-1,-1.3593627E-2,-4.69617E-1,1.2801446E-1,-9.7410865E-2,-1.4324494E-1,-5.519078E-1,-1.5546286E-1,3.3367425E-2,7.416841E-1,8.978088E-2,-2.3291221E-1,6.365477E-1,1.2126706E-1,-1.6562006E-1,-2.7301398E-1,4.4448072E-1,-5.3229964E-1,-1.4073303E-1,-5.9426415E-1,1.4398108E-1,-1.5159321E-1,4.1909638E-1,-7.673689E-2,-1.7595589E-1,1.6537951E-1,-1.417719E-1,-5.807257E-1,-3.6293897E-1,8.565957E-1,-2.1343526E-1,-2.7004987E-1,4.3333027E-1,1.4239743E-1,-4.1779172E-1,2.5180423E-1,1.9285997E-2,1.8644927E-2,-1.2635154E-1,6.217148E-1,-2.3926397E-1,-5.477027E-1,-3.5251626E-1,-2.4871995E-1,2.1989168E-1,-5.9684515E-1,-2.3407992E-2,-1.0927766E-1,1.5585461E-1,-1.5567262E-1,1.654325E-1,-1.0069085E-1,2.429786E-1,3.3577338E-1,-3.358373E-1,-1.0284682E-1,-1.7968431E-1,2.701899E-2,-1.5814766E-1,2.952054E-1,-4.543949E-3,-1.1696835E-1,2.7453456E-2,-1.6317822E-1,5.3984873E-2,2.1346523E-1,-6.000463E-2,4.134036E-2,-1.5874822E-1,2.8298607E-1,4.0387753E-2,-1.252078E-1,3.9480366E-2,-1.661096E-1,-4.7955245E-2,-1.3014345E-1,1.04012825E-1,-1.289351E-1,5.8384847E-2,-8.18344E-2,-1.7991701E-1,-1.1779049E-1,1.1763837E-1,2.3606795E-1,-9.67739E-2,-1.4189887E-1,3.7135158E-2],"categories":[0,1,0,1],"categories_nodes":[46,54],"categories_segments":[0,2],"categories_sizes":[2,2],"default_left":[0,0,0,0,0,0,0,0,0,0,0,0,0,0,0,0,0,0,0,0,0,0,0,0,0,0,0,0,0,0,0,0,0,0,0,0,0,0,0,0,0,0,0,0,0,0,1,0,0,0,0,0,0,0,1,0,0,0,0,0,0,0,0,0,0,0,0,0,0,0,0,0,0,0,0,0,0,0,0,0,0,0,0,0,0,0,0,0,0,0,0,0,0,0,0,0,0,0,0,0,0,0,0,0,0,0,0,0,0,0,0,0,0],"id":10,"left_children":[1,3,5,7,9,11,13,15,17,19,21,23,-1,25,27,29,31,-1,-1,33,35,37,-1,39,41,43,45,47,49,-1,-1,51,53,-1,-1,55,57,59,61,-1,-1,63,65,67,69,71,73,75,77,79,-1,-1,-1,81,83,85,87,89,91,-1,93,-1,-1,-1,-1,95,97,99,101,103,-1,105,-1,-1,-1,-1,107,-1,-1,109,111,-1,-1,-1,-1,-1,-1,-1,-1,-1,-1,-1,-1,-1,-1,-1,-1,-1,-1,-1,-1,-1,-1,-1,-1,-1,-1,-1,-1,-1,-1,-1,-1],"loss_changes":[1.5061493E1,1.23078E1,7.190399E0,2.0938015E0,8.641992E0,2.7939062E0,1.8405914E0,9.257431E-1,1.3158154E0,4.3993444E0,2.6275833E0,2.784102E0,0E0,6.8367004E-1,1.9946041E0,6.166089E-1,5.3466034E-1,0E0,0E0,4.5541275E-1,4.098483E0,2.0740507E0,0E0,1.4593463E0,1.5825992E0,2.812706E0,2.0380096E0,9.81837E-1,1.2950916E0,0E0,0E0,1.4657586E0,1.08594894E-1,0E0,0E0,3.007018E0,2.208167E0,1.3277433E0,4.1344047E-1,0E0,0E0,2.2946385E-1,2.0743537E0,1.0564117E0,2.1648073E0,4.0296936E-1,1.033966E0,1.5291826E0,1.4471625E0,9.5088094E-1,0E0,0E0,0E0,8.031845E-3,8.231249E-1,2.5883923E0,2.2745621E-1,1.19208E0,1.7348516E0,0E0,5.2938306E-1,0E0,0E0,0E0,0E0,1.8931117E0,3.186664E-1,8.7377167E-1,2.3339128E0,1.6447536E0,0E0,1.4939117E-1,0E0,0E0,0E0,0E0,1.0915394E0,0E0,0E0,1.3008153E0,3.936953E-1,0E0,0E0,0E0,0E0,0E0,0E0,0E0,0E0,0E0,0E0,0E0,0E0,0E0,0E0,0E0,0E0,0E0,0E0,0E0,0E0,0E0,0E0,0E0,0E0,0E0,0E0,0E0,0E0,0E0,0E0,0E0,0E0],"parents":[2147483647,0,0,1,1,2,2,3,3,4,4,5,5,6,6,7,7,8,8,9,9,10,10,11,11,13,13,14,14,15,15,16,16,19,19,20,20,21,21,23,23,24,24,25,25,26,26,27,27,28,28,31,31,32,32,35,35,36,36,37,37,38,38,41,41,42,42,43,43,44,44,45,45,46,46,47,47,48,48,49,49,53,53,54,54,55,55,56,56,57,57,58,58,60,60,65,65,66,66,67,67,68,68,69,69,71,71,76,76,79,79,80,80],"right_children":[2,4,6,8,10,12,14,16,18,20,22,24,-1,26,28,30,32,-1,-1,34,36,38,-1,40,42,44,46,48,50,-1,-1,52,54,-1,-1,56,58,60,62,-1,-1,64,66,68,70,72,74,76,78,80,-1,-1,-1,82,84,86,88,90,92,-1,94,-1,-1,-1,-1,96,98,100,102,104,-1,106,-1,-1,-1,-1,108,-1,-1,110,112,-1,-1,-1,-1,-1,-1,-1,-1,-1,-1,-1,-1,-1,-1,-1,-1,-1,-1,-1,-1,-1,-1,-1,-1,-1,-1,-1,-1,-1,-1,-1,-1],"split_conditions":[4.700011E0,3.6967015E0,1.1970798E0,5.5E0,1.49E2,2.0988E2,6.9E0,4.083E1,3.6004028E0,6E0,3.97E0,2.2E0,-1.6629595E-1,1.0177293E1,2.5675085E0,1.04E0,3.228E1,2.3461714E-1,-9.832466E-2,2.9998E2,3.9032803E0,4E0,-1.7694162E-1,7.963E1,6.1249084E0,9.38469E0,6.2E0,2.1855206E0,8E0,1.2801446E-1,-9.7410865E-2,2.204E1,3.0415E2,-1.5546286E-1,3.3367425E-2,7.474E1,2.58E0,2.7420435E0,6.622E1,1.2126706E-1,-1.6562006E-1,5.2345495E0,1.1117058E1,1.8E1,8.8E1,7.9917207E0,1E-45,3.343E1,7.14E0,4.9822083E0,-1.7595589E-1,1.6537951E-1,-1.417719E-1,2.1203778E0,1E-45,5.31E0,2.303E1,1.3E1,7.4E1,1.4239743E-1,4.301E1,2.5180423E-1,1.9285997E-2,1.8644927E-2,-1.2635154E-1,3.75E0,9.38E1,5.76E0,4.105E1,2E1,2.1989168E-1,4.20905E0,-2.3407992E-2,-1.0927766E-1,1.5585461E-1,-1.5567262E-1,9.9E-1,-1.0069085E-1,2.429786E-1,1.316E2,9.916E1,-1.0284682E-1,-1.7968431E-1,2.701899E-2,-1.5814766E-1,2.952054E-1,-4.543949E-3,-1.1696835E-1,2.7453456E-2,-1.6317822E-1,5.3984873E-2,2.1346523E-1,-6.000463E-2,4.134036E-2,-1.5874822E-1,2.8298607E-1,4.0387753E-2,-1.252078E-1,3.9480366E-2,-1.661096E-1,-4.7955245E-2,-1.3014345E-1,1.04012825E-1,-1.289351E-1,5.8384847E-2,-8.18344E-2,-1.7991701E-1,-1.1779049E-1,1.1763837E-1,2.3606795E-1,-9.67739E-2,-1.4189887E-1,3.7135158E-2],"split_indices":[12,21,11,6,7,8,5,8,12,29,5,6,0,12,11,6,19,0,0,8,12,14,0,27,21,21,14,11,29,0,0,16,26,0,0,22,6,12,15,0,0,21,12,31,22,11,35,22,5,11,0,0,0,12,28,5,4,31,1,0,15,0,0,0,0,6,15,6,4,31,0,21,0,0,0,0,6,0,0,8,15,0,0,0,0,0,0,0,0,0,0,0,0,0,0,0,0,0,0,0,0,0,0,0,0,0,0,0,0,0,0,0,0],"split_type":[0,0,0,0,0,0,0,0,0,0,0,0,0,0,0,0,0,0,0,0,0,0,0,0,0,0,0,0,0,0,0,0,0,0,0,0,0,0,0,0,0,0,0,0,0,0,1,0,0,0,0,0,0,0,1,0,0,0,0,0,0,0,0,0,0,0,0,0,0,0,0,0,0,0,0,0,0,0,0,0,0,0,0,0,0,0,0,0,0,0,0,0,0,0,0,0,0,0,0,0,0,0,0,0,0,0,0,0,0,0,0,0,0],"sum_hessian":[1.0246165E3,1.3868668E2,8.8592975E2,6.686827E1,7.181841E1,3.334304E1,8.5258673E2,6.4317245E1,2.5510283E0,4.621965E1,2.5598763E1,2.574074E1,7.6023006E0,8.100298E2,4.2556934E1,2.4027894E0,6.191445E1,1.383584E0,1.1674445E0,5.571747E0,4.0647903E1,1.0661234E1,1.4937528E1,7.756867E0,1.7983873E1,4.7021432E2,3.3981546E2,1.4379146E1,2.8177792E1,1.2505982E0,1.1521913E0,4.2694874E0,5.7644966E1,4.511698E0,1.060049E0,2.473193E1,1.5915974E1,7.6338186E0,3.0274155E0,1.2477182E0,6.5091486E0,3.0938385E0,1.4890036E1,4.5020184E2,2.0012497E1,3.363896E2,3.4258687E0,1.1394652E1,2.9844933E0,6.841536E0,2.1336254E1,1.1565549E0,3.1129324E0,4.821848E1,9.426487E0,2.216802E1,2.563909E0,7.878276E0,8.037698E0,1.2567184E0,6.3771005E0,1.8906721E0,1.1367435E0,1.1263399E0,1.9674985E0,1.1896939E1,2.9930956E0,4.1278937E2,3.7412468E1,1.8447746E1,1.5647495E0,3.3456076E2,1.8288314E0,1.4684818E0,1.957387E0,4.9836464E0,6.4110055E0,1.0664018E0,1.9180915E0,2.5252304E0,4.3163056E0,4.8401384E0,4.3378338E1,2.6281838E0,6.7983036E0,1.922859E1,2.9394317E0,1.4476514E0,1.1162577E0,4.767788E0,3.1104877E0,5.4987082E0,2.5389895E0,1.0252147E0,5.351886E0,6.601863E0,5.2950764E0,1.9373722E0,1.0557234E0,4.0608395E2,6.7054224E0,3.385582E1,3.5566509E0,1.3119967E1,5.32778E0,3.7883778E0,3.3077237E2,1.6405032E0,4.770502E0,1.3825964E0,1.1426342E0,3.30187E0,1.0144354E0],"tree_param":{"num_deleted":"0","num_feature":"40","num_nodes":"113","size_leaf_vector":"1"}},{"base_weights":[9.078283E-3,-3.626699E-2,2.6763973E-1,4.4001427E-2,-1.0529672E-1,5.394082E-1,1.3529389E-1,1.6562057E-1,-6.367207E-2,-1.6341195E-1,4.0109735E-2,5.7855487E-1,-3.2126632E-1,3.2137733E-2,4.1309583E-1,2.139164E-1,-2.0271783E-1,3.0320568E-2,-3.0649096E-1,-1.7101821E-1,7.8578615E-1,4.5191446E-1,-2.1550708E-2,1.5122712E-1,6.3621736E-1,-1.4294308E-1,-7.914634E-4,-2.4107505E-2,7.131453E-1,6.0911965E-1,1.08047746E-1,1.5850806E-1,6.8597114E-1,-3.1299365E-1,2.2129409E-1,1.3079596E-1,-1.8545276E-1,3.5846078E-1,-3.8844627E-1,-1.925121E-1,1.5798774E-1,4.3246053E-2,2.9502025E-1,7.262943E-1,-1.8033352E-1,-4.371112E-1,4.436456E-2,-1.5837565E-1,5.416854E-1,8.271198E-1,4.9291578E-1,8.556538E-2,-3.4957483E-1,2.9454422E-1,-1.2875102E-3,8.754482E-2,6.9342214E-1,-1.5167728E-1,2.514338E-1,-1.4546336E-2,2.6727298E-1,-8.723191E-2,8.013629E-1,2.0389557E-1,-4.2569363E-1,3.7904987E-1,5.375766E-2,-2.5815982E-1,6.038453E-1,6.029257E-1,-1.2942034E-1,-4.3276617E-1,2.1575217E-1,1.024062E-2,-2.2195518E-1,4.716286E-1,-1.6760592E-1,-6.812395E-2,8.970657E-1,-4.2712286E-1,1.2800452E-1,1.6343038E-1,-5.188628E-1,1.9115251E-1,-1.4841688E-1,-3.413648E-2,2.2412236E-1,3.9134714E-1,8.9390916E-1,5.7445496E-1,5.6380913E-2,3.097209E-1,-9.304513E-2,4.0384164E-1,-4.854981E-1,-1.2241989E-1,1.5016082E-1,2.4373625E-1,1.7942876E-1,4.2712536E-1,-1.4858244E-1,1.0798564E-1,-5.092246E-2,9.5549576E-2,-6.652776E-2,9.268674E-2,-1.2675132E-1,2.746565E-1,-5.164394E-2,3.5520513E-2,-1.7075263E-1,-2.8620334E-3,2.5012082E-1,5.090102E-2,-5.2268155E-2,-1.1715346E-1,3.2920256E-2,-1.0033418E-1,2.615808E-1,2.6873618E-1,-2.8333312E-4,9.924301E-2,-1.4004448E-1,-2.2939643E-2,2.1127804E-1,-7.860978E-2,-9.597585E-3,-7.9232976E-2,2.0461996E-1,2.1199784E-1,-9.489853E-2,1.11455105E-1,-1.2899728E-1,3.1283778E-1,-2.9018784E-2,2.8485011E-2,-1.6953774E-1,-1.9525771E-1,-1.8779593E-2,2.9953682E-1,2.8243486E-2,3.2256466E-1,-6.018408E-2,1.7177617E-2,1.7615914E-1,8.522897E-2,2.764231E-1,4.11368E-2,2.0353314E-1,-6.692485E-2,1.5274702E-1,4.0488403E-2,2.1672441E-1,1.05364665E-1,-7.8086615E-2,1.9294456E-1,-2.3157682E-2,-1.6838625E-1,3.0139932E-2,-7.3474124E-2,1.6998973E-1,1.7856394E-1,-1.2409054E-1],"categories":[0,1,2,3,4,6,9,0,3,1,2,3,0,1,3,4,5,6,7,1,2,0,1,2,3,4,5,9],"categories_nodes":[1,17,21,27,28,37,40,92],"categories_segments":[0,7,9,10,12,19,20,21],"categories_sizes":[7,2,1,2,7,1,1,7],"default_left":[0,1,0,0,0,0,0,0,0,0,0,0,0,0,0,0,0,1,0,0,0,1,0,0,0,0,0,1,1,0,0,0,0,0,0,0,0,1,0,0,1,0,0,0,0,0,0,0,0,0,0,0,0,0,0,0,0,0,0,0,0,0,0,0,0,0,0,0,0,0,0,0,0,0,0,0,0,0,0,0,0,0,0,0,0,0,0,0,0,0,0,0,1,0,0,0,0,0,0,0,0,0,0,0,0,0,0,0,0,0,0,0,0,0,0,0,0,0,0,0,0,0,0,0,0,0,0,0,0,0,0,0,0,0,0,0,0,0,0,0,0,0,0,0,0,0,0,0,0,0,0,0,0,0,0,0,0,0,0,0,0,0,0],"id":11,"left_children":[1,3,5,7,9,11,13,15,17,19,21,23,25,27,29,31,33,35,37,39,41,43,45,47,49,-1,-1,51,53,55,57,59,61,63,-1,65,67,69,71,73,75,-1,-1,77,79,81,83,-1,85,87,89,91,93,-1,-1,95,97,-1,99,101,103,105,107,-1,109,111,113,115,117,119,-1,121,-1,123,125,127,129,131,133,135,-1,-1,137,139,141,-1,-1,143,145,147,149,151,153,155,157,-1,-1,-1,159,161,-1,-1,-1,-1,-1,-1,-1,-1,-1,-1,-1,-1,-1,-1,-1,-1,-1,-1,-1,-1,-1,-1,-1,-1,-1,-1,-1,-1,-1,-1,-1,-1,-1,-1,-1,-1,-1,-1,-1,-1,-1,-1,-1,-1,-1,-1,-1,-1,-1,-1,-1,-1,-1,-1,-1,-1,-1,-1,-1,-1,-1,-1,-1],"loss_changes":[1.636334E1,6.584922E0,7.416793E0,7.210241E0,5.4045E0,2.4723186E0,4.0381165E0,4.641118E0,6.6814427E0,3.43081E0,4.6617374E0,1.5120144E0,1.7654693E-1,4.0075674E0,2.2182631E0,5.880518E0,3.3909729E0,4.6132092E0,4.5900908E0,3.2393007E0,3.4112644E-1,4.277912E0,4.4103446E0,2.6915748E0,1.1569691E0,0E0,0E0,3.4993718E0,1.5424719E0,9.52302E-1,1.5488899E0,3.8856053E0,2.1892233E0,3.419158E0,0E0,2.752865E0,4.038888E0,2.0909543E0,3.9041386E0,2.547701E0,2.9767919E0,0E0,0E0,2.3496685E0,1.386023E0,2.0516438E0,3.9692607E0,0E0,9.269165E-1,3.2102585E-1,1.2186117E0,2.9716313E0,2.724933E0,0E0,0E0,1.0946451E0,1.0587969E0,0E0,2.0175202E0,4.742146E0,3.2443285E0,6.6005623E-1,2.4655466E0,0E0,2.076817E0,6.046417E0,2.9847984E0,3.0936685E0,1.802562E0,1.3551233E0,0E0,2.0003195E0,0E0,3.3649526E0,2.826559E0,2.458502E0,2.129739E0,7.824514E-1,2.1218996E0,5.0126886E-1,0E0,0E0,1.2153244E0,6.1320434E0,4.096642E0,0E0,0E0,2.831915E-1,6.0354233E-2,1.2488031E0,9.538198E-1,2.270037E0,3.1879692E0,5.4695266E-1,1.0056181E0,0E0,0E0,0E0,9.579457E-1,1.896971E0,0E0,0E0,0E0,0E0,0E0,0E0,0E0,0E0,0E0,0E0,0E0,0E0,0E0,0E0,0E0,0E0,0E0,0E0,0E0,0E0,0E0,0E0,0E0,0E0,0E0,0E0,0E0,0E0,0E0,0E0,0E0,0E0,0E0,0E0,0E0,0E0,0E0,0E0,0E0,0E0,0E0,0E0,0E0,0E0,0E0,0E0,0E0,0E0,0E0,0E0,0E0,0E0,0E0,0E0,0E0,0E0,0E0,0E0,0E0,0E0,0E0,0E0,0E0],"parents":[2147483647,0,0,1,1,2,2,3,3,4,4,5,5,6,6,7,7,8,8,9,9,10,10,11,11,12,12,13,13,14,14,15,15,16,16,17,17,18,18,19,19,20,20,21,21,22,22,23,23,24,24,27,27,28,28,29,29,30,30,31,31,32,32,33,33,35,35,36,36,37,37,38,38,39,39,40,40,43,43,44,44,45,45,46,46,48,48,49,49,50,50,51,51,52,52,55,55,56,56,58,58,59,59,60,60,61,61,62,62,64,64,65,65,66,66,67,67,68,68,69,69,71,71,73,73,74,74,75,75,76,76,77,77,78,78,79,79,82,82,83,83,84,84,87,87,88,88,89,89,90,90,91,91,92,92,93,93,94,94,98,98,99,99],"right_children":[2,4,6,8,10,12,14,16,18,20,22,24,26,28,30,32,34,36,38,40,42,44,46,48,50,-1,-1,52,54,56,58,60,62,64,-1,66,68,70,72,74,76,-1,-1,78,80,82,84,-1,86,88,90,92,94,-1,-1,96,98,-1,100,102,104,106,108,-1,110,112,114,116,118,120,-1,122,-1,124,126,128,130,132,134,136,-1,-1,138,140,142,-1,-1,144,146,148,150,152,154,156,158,-1,-1,-1,160,162,-1,-1,-1,-1,-1,-1,-1,-1,-1,-1,-1,-1,-1,-1,-1,-1,-1,-1,-1,-1,-1,-1,-1,-1,-1,-1,-1,-1,-1,-1,-1,-1,-1,-1,-1,-1,-1,-1,-1,-1,-1,-1,-1,-1,-1,-1,-1,-1,-1,-1,-1,-1,-1,-1,-1,-1,-1,-1,-1,-1,-1,-1,-1],"split_conditions":[1.1190299E1,1E-45,7.25E0,5.6E1,4.12E0,6.08E0,1.6110943E1,2.34E0,2.472E3,7.2E3,3.648E1,4.125E1,6.61E0,1.5649E2,8.56E0,5.88E0,2.3E1,1E-45,2.277E1,1.0209E2,1.27E0,1E-45,5E-1,5.49E0,2.54E0,-1.4294308E-1,-7.914634E-4,1E-45,1E-45,9.42E2,1.7270742E1,2.3E0,4.276E1,3.3662145E0,2.2129409E-1,4.513E1,2.3E1,1E-45,6.8E0,3.55E2,1E-45,4.3246053E-2,2.9502025E-1,3.8E1,3.33E0,8.2E-1,1.59E0,-1.5837565E-1,2.87E2,1.53E0,2.51E3,2.01E0,2.6E1,2.9454422E-1,-1.2875102E-3,5.07E0,6.69E0,-1.5167728E-1,2.03E0,4.9E-1,6.37E0,5.55E0,2.1E1,2.0389557E-1,2.8E1,3.998E1,1.825E3,8.5E1,4.478E1,5.337E1,-1.2942034E-1,2.1E-1,2.1575217E-1,7.44E0,1.6E1,2.37E0,1.061E1,8E0,4.4E0,3.951E1,1.2800452E-1,1.6343038E-1,6.37E0,4.36E0,5E0,-3.413648E-2,2.2412236E-1,6.324E1,4.353E1,3.6E1,1.294736E1,2.93E0,1E-45,1.91E0,4.79E0,-1.2241989E-1,1.5016082E-1,2.4373625E-1,7E0,9.713E1,-1.4858244E-1,1.0798564E-1,-5.092246E-2,9.5549576E-2,-6.652776E-2,9.268674E-2,-1.2675132E-1,2.746565E-1,-5.164394E-2,3.5520513E-2,-1.7075263E-1,-2.8620334E-3,2.5012082E-1,5.090102E-2,-5.2268155E-2,-1.1715346E-1,3.2920256E-2,-1.0033418E-1,2.615808E-1,2.6873618E-1,-2.8333312E-4,9.924301E-2,-1.4004448E-1,-2.2939643E-2,2.1127804E-1,-7.860978E-2,-9.597585E-3,-7.9232976E-2,2.0461996E-1,2.1199784E-1,-9.489853E-2,1.11455105E-1,-1.2899728E-1,3.1283778E-1,-2.9018784E-2,2.8485011E-2,-1.6953774E-1,-1.9525771E-1,-1.8779593E-2,2.9953682E-1,2.8243486E-2,3.2256466E-1,-6.018408E-2,1.7177617E-2,1.7615914E-1,8.522897E-2,2.764231E-1,4.11368E-2,2.0353314E-1,-6.692485E-2,1.5274702E-1,4.0488403E-2,2.1672441E-1,1.05364665E-1,-7.8086615E-2,1.9294456E-1,-2.3157682E-2,-1.6838625E-1,3.0139932E-2,-7.3474124E-2,1.6998973E-1,1.7856394E-1,-1.2409054E-1],"split_indices":[21,37,17,0,13,24,21,25,39,39,19,19,17,19,17,5,31,35,19,3,6,28,25,17,13,0,0,28,37,39,21,13,19,21,0,3,31,28,13,39,28,0,0,0,6,6,25,0,39,6,39,6,0,0,0,5,5,0,25,24,13,17,31,0,0,3,39,0,19,22,0,13,0,17,31,5,19,31,14,3,0,0,13,13,36,0,0,3,19,0,21,24,37,6,24,0,0,0,36,3,0,0,0,0,0,0,0,0,0,0,0,0,